digraph Tree {
node [shape=box, fontname="helvetica"] ;
edge [fontname="helvetica"] ;
0 [label="x[24] <= 370.721\nsquared_error = 44707.29\nsamples = 6000\nvalue = 620.067"] ;
1 [label="x[24] <= 245.006\nsquared_error = 31461.147\nsamples = 3269\nvalue = 496.111"] ;
0 -> 1 [labeldistance=2.5, labelangle=45, headlabel="True"] ;
2 [label="x[24] <= 177.532\nsquared_error = 28398.572\nsamples = 1522\nvalue = 418.398"] ;
1 -> 2 ;
3 [label="x[18] <= 0.5\nsquared_error = 28795.842\nsamples = 705\nvalue = 380.979"] ;
2 -> 3 ;
4 [label="x[22] <= 0.5\nsquared_error = 29063.09\nsamples = 671\nvalue = 385.261"] ;
3 -> 4 ;
5 [label="x[10] <= 0.5\nsquared_error = 29106.838\nsamples = 649\nvalue = 388.639"] ;
4 -> 5 ;
6 [label="x[11] <= 0.5\nsquared_error = 28261.957\nsamples = 607\nvalue = 384.488"] ;
5 -> 6 ;
7 [label="x[19] <= 0.5\nsquared_error = 27041.752\nsamples = 570\nvalue = 380.098"] ;
6 -> 7 ;
8 [label="x[24] <= 76.052\nsquared_error = 27797.518\nsamples = 541\nvalue = 383.126"] ;
7 -> 8 ;
9 [label="x[24] <= 74.942\nsquared_error = 41907.98\nsamples = 37\nvalue = 431.486"] ;
8 -> 9 ;
10 [label="x[23] <= 0.5\nsquared_error = 31788.526\nsamples = 35\nvalue = 406.4"] ;
9 -> 10 ;
11 [label="x[24] <= 59.627\nsquared_error = 23005.633\nsamples = 33\nvalue = 392.394"] ;
10 -> 11 ;
12 [label="x[24] <= 59.388\nsquared_error = 26810.243\nsamples = 12\nvalue = 458.917"] ;
11 -> 12 ;
13 [label="x[7] <= 0.5\nsquared_error = 20844.612\nsamples = 11\nvalue = 432.455"] ;
12 -> 13 ;
14 [label="x[20] <= 0.5\nsquared_error = 16733.359\nsamples = 8\nvalue = 488.125"] ;
13 -> 14 ;
15 [label="x[5] <= 0.5\nsquared_error = 7240.24\nsamples = 5\nvalue = 571.6"] ;
14 -> 15 ;
16 [label="x[17] <= 0.5\nsquared_error = 788.188\nsamples = 4\nvalue = 612.25"] ;
15 -> 16 ;
17 [label="x[24] <= 47.488\nsquared_error = 37.556\nsamples = 3\nvalue = 596.333"] ;
16 -> 17 ;
18 [label="squared_error = 0.0\nsamples = 1\nvalue = 604.0"] ;
17 -> 18 ;
19 [label="x[3] <= 0.5\nsquared_error = 12.25\nsamples = 2\nvalue = 592.5"] ;
17 -> 19 ;
20 [label="squared_error = 0.0\nsamples = 1\nvalue = 596.0"] ;
19 -> 20 ;
21 [label="squared_error = 0.0\nsamples = 1\nvalue = 589.0"] ;
19 -> 21 ;
22 [label="squared_error = 0.0\nsamples = 1\nvalue = 660.0"] ;
16 -> 22 ;
23 [label="squared_error = 0.0\nsamples = 1\nvalue = 409.0"] ;
15 -> 23 ;
24 [label="x[24] <= 36.312\nsquared_error = 1586.0\nsamples = 3\nvalue = 349.0"] ;
14 -> 24 ;
25 [label="squared_error = 0.0\nsamples = 1\nvalue = 296.0"] ;
24 -> 25 ;
26 [label="x[24] <= 51.154\nsquared_error = 272.25\nsamples = 2\nvalue = 375.5"] ;
24 -> 26 ;
27 [label="squared_error = 0.0\nsamples = 1\nvalue = 392.0"] ;
26 -> 27 ;
28 [label="squared_error = 0.0\nsamples = 1\nvalue = 359.0"] ;
26 -> 28 ;
29 [label="x[24] <= 57.994\nsquared_error = 1504.667\nsamples = 3\nvalue = 284.0"] ;
13 -> 29 ;
30 [label="x[24] <= 55.895\nsquared_error = 306.25\nsamples = 2\nvalue = 309.5"] ;
29 -> 30 ;
31 [label="squared_error = 0.0\nsamples = 1\nvalue = 292.0"] ;
30 -> 31 ;
32 [label="squared_error = 0.0\nsamples = 1\nvalue = 327.0"] ;
30 -> 32 ;
33 [label="squared_error = 0.0\nsamples = 1\nvalue = 233.0"] ;
29 -> 33 ;
34 [label="squared_error = 0.0\nsamples = 1\nvalue = 750.0"] ;
12 -> 34 ;
35 [label="x[24] <= 72.286\nsquared_error = 16857.855\nsamples = 21\nvalue = 354.381"] ;
11 -> 35 ;
36 [label="x[15] <= 0.5\nsquared_error = 13566.438\nsamples = 16\nvalue = 321.25"] ;
35 -> 36 ;
37 [label="x[12] <= 0.5\nsquared_error = 7426.062\nsamples = 15\nvalue = 300.267"] ;
36 -> 37 ;
38 [label="x[24] <= 62.827\nsquared_error = 2263.883\nsamples = 14\nvalue = 280.786"] ;
37 -> 38 ;
39 [label="x[7] <= 0.5\nsquared_error = 464.96\nsamples = 5\nvalue = 329.8"] ;
38 -> 39 ;
40 [label="x[24] <= 60.844\nsquared_error = 101.0\nsamples = 4\nvalue = 320.0"] ;
39 -> 40 ;
41 [label="x[24] <= 60.166\nsquared_error = 6.222\nsamples = 3\nvalue = 325.667"] ;
40 -> 41 ;
42 [label="x[24] <= 59.757\nsquared_error = 1.0\nsamples = 2\nvalue = 324.0"] ;
41 -> 42 ;
43 [label="squared_error = 0.0\nsamples = 1\nvalue = 325.0"] ;
42 -> 43 ;
44 [label="squared_error = 0.0\nsamples = 1\nvalue = 323.0"] ;
42 -> 44 ;
45 [label="squared_error = 0.0\nsamples = 1\nvalue = 329.0"] ;
41 -> 45 ;
46 [label="squared_error = 0.0\nsamples = 1\nvalue = 303.0"] ;
40 -> 46 ;
47 [label="squared_error = 0.0\nsamples = 1\nvalue = 369.0"] ;
39 -> 47 ;
48 [label="x[16] <= 0.5\nsquared_error = 1187.136\nsamples = 9\nvalue = 253.556"] ;
38 -> 48 ;
49 [label="x[24] <= 66.603\nsquared_error = 855.188\nsamples = 8\nvalue = 246.25"] ;
48 -> 49 ;
50 [label="x[14] <= 0.5\nsquared_error = 398.188\nsamples = 4\nvalue = 269.25"] ;
49 -> 50 ;
51 [label="x[24] <= 63.479\nsquared_error = 24.667\nsamples = 3\nvalue = 258.0"] ;
50 -> 51 ;
52 [label="squared_error = 0.0\nsamples = 1\nvalue = 251.0"] ;
51 -> 52 ;
53 [label="x[24] <= 65.044\nsquared_error = 0.25\nsamples = 2\nvalue = 261.5"] ;
51 -> 53 ;
54 [label="squared_error = 0.0\nsamples = 1\nvalue = 261.0"] ;
53 -> 54 ;
55 [label="squared_error = 0.0\nsamples = 1\nvalue = 262.0"] ;
53 -> 55 ;
56 [label="squared_error = 0.0\nsamples = 1\nvalue = 303.0"] ;
50 -> 56 ;
57 [label="x[24] <= 71.158\nsquared_error = 254.188\nsamples = 4\nvalue = 223.25"] ;
49 -> 57 ;
58 [label="x[24] <= 69.042\nsquared_error = 30.25\nsamples = 2\nvalue = 209.5"] ;
57 -> 58 ;
59 [label="squared_error = 0.0\nsamples = 1\nvalue = 204.0"] ;
58 -> 59 ;
60 [label="squared_error = 0.0\nsamples = 1\nvalue = 215.0"] ;
58 -> 60 ;
61 [label="x[3] <= 0.5\nsquared_error = 100.0\nsamples = 2\nvalue = 237.0"] ;
57 -> 61 ;
62 [label="squared_error = 0.0\nsamples = 1\nvalue = 247.0"] ;
61 -> 62 ;
63 [label="squared_error = 0.0\nsamples = 1\nvalue = 227.0"] ;
61 -> 63 ;
64 [label="squared_error = 0.0\nsamples = 1\nvalue = 312.0"] ;
48 -> 64 ;
65 [label="squared_error = 0.0\nsamples = 1\nvalue = 573.0"] ;
37 -> 65 ;
66 [label="squared_error = 0.0\nsamples = 1\nvalue = 636.0"] ;
36 -> 66 ;
67 [label="x[7] <= 0.5\nsquared_error = 12637.84\nsamples = 5\nvalue = 460.4"] ;
35 -> 67 ;
68 [label="x[24] <= 73.41\nsquared_error = 2522.0\nsamples = 3\nvalue = 395.0"] ;
67 -> 68 ;
69 [label="squared_error = 0.0\nsamples = 1\nvalue = 457.0"] ;
68 -> 69 ;
70 [label="x[15] <= 0.5\nsquared_error = 900.0\nsamples = 2\nvalue = 364.0"] ;
68 -> 70 ;
71 [label="squared_error = 0.0\nsamples = 1\nvalue = 394.0"] ;
70 -> 71 ;
72 [label="squared_error = 0.0\nsamples = 1\nvalue = 334.0"] ;
70 -> 72 ;
73 [label="x[24] <= 73.322\nsquared_error = 11772.25\nsamples = 2\nvalue = 558.5"] ;
67 -> 73 ;
74 [label="squared_error = 0.0\nsamples = 1\nvalue = 450.0"] ;
73 -> 74 ;
75 [label="squared_error = 0.0\nsamples = 1\nvalue = 667.0"] ;
73 -> 75 ;
76 [label="x[24] <= 67.618\nsquared_error = 120062.25\nsamples = 2\nvalue = 637.5"] ;
10 -> 76 ;
77 [label="squared_error = 0.0\nsamples = 1\nvalue = 291.0"] ;
76 -> 77 ;
78 [label="squared_error = 0.0\nsamples = 1\nvalue = 984.0"] ;
76 -> 78 ;
79 [label="x[21] <= 0.5\nsquared_error = 15252.25\nsamples = 2\nvalue = 870.5"] ;
9 -> 79 ;
80 [label="squared_error = 0.0\nsamples = 1\nvalue = 994.0"] ;
79 -> 80 ;
81 [label="squared_error = 0.0\nsamples = 1\nvalue = 747.0"] ;
79 -> 81 ;
82 [label="x[24] <= 81.983\nsquared_error = 26577.332\nsamples = 504\nvalue = 379.575"] ;
8 -> 82 ;
83 [label="x[24] <= 80.814\nsquared_error = 9994.793\nsamples = 11\nvalue = 277.455"] ;
82 -> 83 ;
84 [label="x[24] <= 79.193\nsquared_error = 7439.654\nsamples = 9\nvalue = 305.889"] ;
83 -> 84 ;
85 [label="x[24] <= 77.665\nsquared_error = 8099.5\nsamples = 4\nvalue = 245.0"] ;
84 -> 85 ;
86 [label="x[1] <= 0.5\nsquared_error = 380.25\nsamples = 2\nvalue = 332.5"] ;
85 -> 86 ;
87 [label="squared_error = 0.0\nsamples = 1\nvalue = 352.0"] ;
86 -> 87 ;
88 [label="squared_error = 0.0\nsamples = 1\nvalue = 313.0"] ;
86 -> 88 ;
89 [label="x[21] <= 0.5\nsquared_error = 506.25\nsamples = 2\nvalue = 157.5"] ;
85 -> 89 ;
90 [label="squared_error = 0.0\nsamples = 1\nvalue = 135.0"] ;
89 -> 90 ;
91 [label="squared_error = 0.0\nsamples = 1\nvalue = 180.0"] ;
89 -> 91 ;
92 [label="x[8] <= 0.5\nsquared_error = 1573.04\nsamples = 5\nvalue = 354.6"] ;
84 -> 92 ;
93 [label="x[12] <= 0.5\nsquared_error = 702.25\nsamples = 4\nvalue = 370.5"] ;
92 -> 93 ;
94 [label="x[24] <= 79.944\nsquared_error = 277.556\nsamples = 3\nvalue = 357.667"] ;
93 -> 94 ;
95 [label="squared_error = 0.0\nsamples = 1\nvalue = 380.0"] ;
94 -> 95 ;
96 [label="x[16] <= 0.5\nsquared_error = 42.25\nsamples = 2\nvalue = 346.5"] ;
94 -> 96 ;
97 [label="squared_error = 0.0\nsamples = 1\nvalue = 340.0"] ;
96 -> 97 ;
98 [label="squared_error = 0.0\nsamples = 1\nvalue = 353.0"] ;
96 -> 98 ;
99 [label="squared_error = 0.0\nsamples = 1\nvalue = 409.0"] ;
93 -> 99 ;
100 [label="squared_error = 0.0\nsamples = 1\nvalue = 291.0"] ;
92 -> 100 ;
101 [label="x[8] <= 0.5\nsquared_error = 1482.25\nsamples = 2\nvalue = 149.5"] ;
83 -> 101 ;
102 [label="squared_error = 0.0\nsamples = 1\nvalue = 188.0"] ;
101 -> 102 ;
103 [label="squared_error = 0.0\nsamples = 1\nvalue = 111.0"] ;
101 -> 103 ;
104 [label="x[24] <= 92.284\nsquared_error = 26709.447\nsamples = 493\nvalue = 381.854"] ;
82 -> 104 ;
105 [label="x[7] <= 0.5\nsquared_error = 46584.391\nsamples = 13\nvalue = 465.615"] ;
104 -> 105 ;
106 [label="x[2] <= 0.5\nsquared_error = 28222.188\nsamples = 12\nvalue = 424.25"] ;
105 -> 106 ;
107 [label="x[24] <= 91.267\nsquared_error = 16030.512\nsamples = 11\nvalue = 389.182"] ;
106 -> 107 ;
108 [label="x[12] <= 0.5\nsquared_error = 7141.951\nsamples = 9\nvalue = 353.222"] ;
107 -> 108 ;
109 [label="x[4] <= 0.5\nsquared_error = 3540.109\nsamples = 8\nvalue = 330.875"] ;
108 -> 109 ;
110 [label="x[24] <= 90.985\nsquared_error = 2473.837\nsamples = 7\nvalue = 316.857"] ;
109 -> 110 ;
111 [label="x[24] <= 86.283\nsquared_error = 2159.2\nsamples = 5\nvalue = 335.0"] ;
110 -> 111 ;
112 [label="x[17] <= 0.5\nsquared_error = 441.0\nsamples = 2\nvalue = 283.0"] ;
111 -> 112 ;
113 [label="squared_error = 0.0\nsamples = 1\nvalue = 304.0"] ;
112 -> 113 ;
114 [label="squared_error = 0.0\nsamples = 1\nvalue = 262.0"] ;
112 -> 114 ;
115 [label="x[6] <= 0.5\nsquared_error = 300.222\nsamples = 3\nvalue = 369.667"] ;
111 -> 115 ;
116 [label="x[24] <= 89.221\nsquared_error = 30.25\nsamples = 2\nvalue = 381.5"] ;
115 -> 116 ;
117 [label="squared_error = 0.0\nsamples = 1\nvalue = 387.0"] ;
116 -> 117 ;
118 [label="squared_error = 0.0\nsamples = 1\nvalue = 376.0"] ;
116 -> 118 ;
119 [label="squared_error = 0.0\nsamples = 1\nvalue = 346.0"] ;
115 -> 119 ;
120 [label="x[24] <= 91.136\nsquared_error = 380.25\nsamples = 2\nvalue = 271.5"] ;
110 -> 120 ;
121 [label="squared_error = 0.0\nsamples = 1\nvalue = 291.0"] ;
120 -> 121 ;
122 [label="squared_error = 0.0\nsamples = 1\nvalue = 252.0"] ;
120 -> 122 ;
123 [label="squared_error = 0.0\nsamples = 1\nvalue = 429.0"] ;
109 -> 123 ;
124 [label="squared_error = 0.0\nsamples = 1\nvalue = 532.0"] ;
108 -> 124 ;
125 [label="x[8] <= 0.5\nsquared_error = 24025.0\nsamples = 2\nvalue = 551.0"] ;
107 -> 125 ;
126 [label="squared_error = 0.0\nsamples = 1\nvalue = 396.0"] ;
125 -> 126 ;
127 [label="squared_error = 0.0\nsamples = 1\nvalue = 706.0"] ;
125 -> 127 ;
128 [label="squared_error = 0.0\nsamples = 1\nvalue = 810.0"] ;
106 -> 128 ;
129 [label="squared_error = 0.0\nsamples = 1\nvalue = 962.0"] ;
105 -> 129 ;
130 [label="x[24] <= 162.04\nsquared_error = 25976.005\nsamples = 480\nvalue = 379.585"] ;
104 -> 130 ;
131 [label="x[21] <= 0.5\nsquared_error = 25327.571\nsamples = 361\nvalue = 372.089"] ;
130 -> 131 ;
132 [label="x[7] <= 0.5\nsquared_error = 25455.289\nsamples = 347\nvalue = 375.738"] ;
131 -> 132 ;
133 [label="x[24] <= 120.951\nsquared_error = 26034.599\nsamples = 313\nvalue = 381.955"] ;
132 -> 133 ;
134 [label="x[17] <= 0.5\nsquared_error = 37330.124\nsamples = 80\nvalue = 421.475"] ;
133 -> 134 ;
135 [label="x[24] <= 120.781\nsquared_error = 32838.58\nsamples = 77\nvalue = 408.208"] ;
134 -> 135 ;
136 [label="x[16] <= 0.5\nsquared_error = 31774.767\nsamples = 75\nvalue = 401.627"] ;
135 -> 136 ;
137 [label="x[12] <= 0.5\nsquared_error = 27245.488\nsamples = 69\nvalue = 389.406"] ;
136 -> 137 ;
138 [label="x[4] <= 0.5\nsquared_error = 27403.046\nsamples = 60\nvalue = 372.567"] ;
137 -> 138 ;
139 [label="x[3] <= 0.5\nsquared_error = 23543.648\nsamples = 58\nvalue = 364.276"] ;
138 -> 139 ;
140 [label="x[13] <= 0.5\nsquared_error = 23540.372\nsamples = 55\nvalue = 372.345"] ;
139 -> 140 ;
141 [label="x[14] <= 0.5\nsquared_error = 23360.688\nsamples = 52\nvalue = 364.75"] ;
140 -> 141 ;
142 [label="x[24] <= 112.565\nsquared_error = 23061.109\nsamples = 45\nvalue = 351.956"] ;
141 -> 142 ;
143 [label="x[9] <= 0.5\nsquared_error = 10966.36\nsamples = 30\nvalue = 316.8"] ;
142 -> 143 ;
144 [label="x[24] <= 97.81\nsquared_error = 11317.325\nsamples = 26\nvalue = 304.462"] ;
143 -> 144 ;
145 [label="x[24] <= 94.601\nsquared_error = 13483.609\nsamples = 8\nvalue = 354.125"] ;
144 -> 145 ;
146 [label="x[24] <= 92.922\nsquared_error = 8742.0\nsamples = 4\nvalue = 278.0"] ;
145 -> 146 ;
147 [label="squared_error = 0.0\nsamples = 1\nvalue = 196.0"] ;
146 -> 147 ;
148 [label="x[24] <= 93.551\nsquared_error = 8667.556\nsamples = 3\nvalue = 305.333"] ;
146 -> 148 ;
149 [label="squared_error = 0.0\nsamples = 1\nvalue = 436.0"] ;
148 -> 149 ;
150 [label="x[5] <= 0.5\nsquared_error = 196.0\nsamples = 2\nvalue = 240.0"] ;
148 -> 150 ;
151 [label="squared_error = 0.0\nsamples = 1\nvalue = 254.0"] ;
150 -> 151 ;
152 [label="squared_error = 0.0\nsamples = 1\nvalue = 226.0"] ;
150 -> 152 ;
153 [label="x[5] <= 0.5\nsquared_error = 6635.188\nsamples = 4\nvalue = 430.25"] ;
145 -> 153 ;
154 [label="x[24] <= 94.944\nsquared_error = 4424.667\nsamples = 3\nvalue = 397.0"] ;
153 -> 154 ;
155 [label="squared_error = 0.0\nsamples = 1\nvalue = 460.0"] ;
154 -> 155 ;
156 [label="x[24] <= 95.759\nsquared_error = 3660.25\nsamples = 2\nvalue = 365.5"] ;
154 -> 156 ;
157 [label="squared_error = 0.0\nsamples = 1\nvalue = 305.0"] ;
156 -> 157 ;
158 [label="squared_error = 0.0\nsamples = 1\nvalue = 426.0"] ;
156 -> 158 ;
159 [label="squared_error = -0.0\nsamples = 1\nvalue = 530.0"] ;
153 -> 159 ;
160 [label="x[24] <= 110.71\nsquared_error = 8771.127\nsamples = 18\nvalue = 282.389"] ;
144 -> 160 ;
161 [label="x[24] <= 109.429\nsquared_error = 2989.627\nsamples = 15\nvalue = 269.2"] ;
160 -> 161 ;
162 [label="x[24] <= 100.208\nsquared_error = 2833.743\nsamples = 12\nvalue = 282.083"] ;
161 -> 162 ;
163 [label="x[24] <= 99.679\nsquared_error = 50.889\nsamples = 3\nvalue = 219.667"] ;
162 -> 163 ;
164 [label="squared_error = 0.0\nsamples = 1\nvalue = 210.0"] ;
163 -> 164 ;
165 [label="x[23] <= 0.5\nsquared_error = 6.25\nsamples = 2\nvalue = 224.5"] ;
163 -> 165 ;
166 [label="squared_error = 0.0\nsamples = 1\nvalue = 227.0"] ;
165 -> 166 ;
167 [label="squared_error = 0.0\nsamples = 1\nvalue = 222.0"] ;
165 -> 167 ;
168 [label="x[24] <= 101.633\nsquared_error = 2029.877\nsamples = 9\nvalue = 302.889"] ;
162 -> 168 ;
169 [label="squared_error = 0.0\nsamples = 1\nvalue = 378.0"] ;
168 -> 169 ;
170 [label="x[24] <= 104.051\nsquared_error = 1490.25\nsamples = 8\nvalue = 293.5"] ;
168 -> 170 ;
171 [label="x[1] <= 0.5\nsquared_error = 361.0\nsamples = 2\nvalue = 247.0"] ;
170 -> 171 ;
172 [label="squared_error = 0.0\nsamples = 1\nvalue = 228.0"] ;
171 -> 172 ;
173 [label="squared_error = 0.0\nsamples = 1\nvalue = 266.0"] ;
171 -> 173 ;
174 [label="x[1] <= 0.5\nsquared_error = 905.667\nsamples = 6\nvalue = 309.0"] ;
170 -> 174 ;
175 [label="x[24] <= 108.464\nsquared_error = 222.8\nsamples = 5\nvalue = 321.0"] ;
174 -> 175 ;
176 [label="x[5] <= 0.5\nsquared_error = 60.667\nsamples = 3\nvalue = 332.0"] ;
175 -> 176 ;
177 [label="squared_error = 0.0\nsamples = 1\nvalue = 342.0"] ;
176 -> 177 ;
178 [label="x[24] <= 104.826\nsquared_error = 16.0\nsamples = 2\nvalue = 327.0"] ;
176 -> 178 ;
179 [label="squared_error = 0.0\nsamples = 1\nvalue = 323.0"] ;
178 -> 179 ;
180 [label="squared_error = 0.0\nsamples = 1\nvalue = 331.0"] ;
178 -> 180 ;
181 [label="x[24] <= 109.166\nsquared_error = 12.25\nsamples = 2\nvalue = 304.5"] ;
175 -> 181 ;
182 [label="squared_error = 0.0\nsamples = 1\nvalue = 301.0"] ;
181 -> 182 ;
183 [label="squared_error = 0.0\nsamples = 1\nvalue = 308.0"] ;
181 -> 183 ;
184 [label="squared_error = 0.0\nsamples = 1\nvalue = 249.0"] ;
174 -> 184 ;
185 [label="x[6] <= 0.5\nsquared_error = 293.556\nsamples = 3\nvalue = 217.667"] ;
161 -> 185 ;
186 [label="x[24] <= 109.481\nsquared_error = 20.25\nsamples = 2\nvalue = 229.5"] ;
185 -> 186 ;
187 [label="squared_error = 0.0\nsamples = 1\nvalue = 225.0"] ;
186 -> 187 ;
188 [label="squared_error = 0.0\nsamples = 1\nvalue = 234.0"] ;
186 -> 188 ;
189 [label="squared_error = -0.0\nsamples = 1\nvalue = 194.0"] ;
185 -> 189 ;
190 [label="x[24] <= 111.803\nsquared_error = 32460.222\nsamples = 3\nvalue = 348.333"] ;
160 -> 190 ;
191 [label="squared_error = 0.0\nsamples = 1\nvalue = 603.0"] ;
190 -> 191 ;
192 [label="x[8] <= 0.5\nsquared_error = 49.0\nsamples = 2\nvalue = 221.0"] ;
190 -> 192 ;
193 [label="squared_error = 0.0\nsamples = 1\nvalue = 228.0"] ;
192 -> 193 ;
194 [label="squared_error = 0.0\nsamples = 1\nvalue = 214.0"] ;
192 -> 194 ;
195 [label="x[24] <= 103.831\nsquared_error = 1263.5\nsamples = 4\nvalue = 397.0"] ;
143 -> 195 ;
196 [label="x[24] <= 95.925\nsquared_error = 240.667\nsamples = 3\nvalue = 378.0"] ;
195 -> 196 ;
197 [label="squared_error = 0.0\nsamples = 1\nvalue = 362.0"] ;
196 -> 197 ;
198 [label="x[24] <= 98.075\nsquared_error = 169.0\nsamples = 2\nvalue = 386.0"] ;
196 -> 198 ;
199 [label="squared_error = 0.0\nsamples = 1\nvalue = 399.0"] ;
198 -> 199 ;
200 [label="squared_error = 0.0\nsamples = 1\nvalue = 373.0"] ;
198 -> 200 ;
201 [label="squared_error = 0.0\nsamples = 1\nvalue = 454.0"] ;
195 -> 201 ;
202 [label="x[1] <= 0.5\nsquared_error = 39835.129\nsamples = 15\nvalue = 422.267"] ;
142 -> 202 ;
203 [label="x[24] <= 115.814\nsquared_error = 26785.633\nsamples = 14\nvalue = 389.714"] ;
202 -> 203 ;
204 [label="x[24] <= 114.393\nsquared_error = 25883.688\nsamples = 4\nvalue = 568.25"] ;
203 -> 204 ;
205 [label="x[6] <= 0.5\nsquared_error = 2070.25\nsamples = 2\nvalue = 471.5"] ;
204 -> 205 ;
206 [label="squared_error = 0.0\nsamples = 1\nvalue = 517.0"] ;
205 -> 206 ;
207 [label="squared_error = 0.0\nsamples = 1\nvalue = 426.0"] ;
205 -> 207 ;
208 [label="x[24] <= 115.607\nsquared_error = 30976.0\nsamples = 2\nvalue = 665.0"] ;
204 -> 208 ;
209 [label="squared_error = 0.0\nsamples = 1\nvalue = 841.0"] ;
208 -> 209 ;
210 [label="squared_error = 0.0\nsamples = 1\nvalue = 489.0"] ;
208 -> 210 ;
211 [label="x[5] <= 0.5\nsquared_error = 9296.41\nsamples = 10\nvalue = 318.3"] ;
203 -> 211 ;
212 [label="x[15] <= 0.5\nsquared_error = 8265.333\nsamples = 9\nvalue = 332.667"] ;
211 -> 212 ;
213 [label="x[8] <= 0.5\nsquared_error = 7006.484\nsamples = 8\nvalue = 348.625"] ;
212 -> 213 ;
214 [label="x[24] <= 118.191\nsquared_error = 5221.633\nsamples = 7\nvalue = 367.286"] ;
213 -> 214 ;
215 [label="x[24] <= 117.415\nsquared_error = 4424.0\nsamples = 4\nvalue = 324.0"] ;
214 -> 215 ;
216 [label="x[20] <= 0.5\nsquared_error = 2136.889\nsamples = 3\nvalue = 354.667"] ;
215 -> 216 ;
217 [label="squared_error = 0.0\nsamples = 1\nvalue = 420.0"] ;
216 -> 217 ;
218 [label="x[24] <= 116.262\nsquared_error = 4.0\nsamples = 2\nvalue = 322.0"] ;
216 -> 218 ;
219 [label="squared_error = 0.0\nsamples = 1\nvalue = 324.0"] ;
218 -> 219 ;
220 [label="squared_error = 0.0\nsamples = 1\nvalue = 320.0"] ;
218 -> 220 ;
221 [label="squared_error = 0.0\nsamples = 1\nvalue = 232.0"] ;
215 -> 221 ;
222 [label="x[24] <= 119.848\nsquared_error = 456.0\nsamples = 3\nvalue = 425.0"] ;
214 -> 222 ;
223 [label="x[20] <= 0.5\nsquared_error = 9.0\nsamples = 2\nvalue = 440.0"] ;
222 -> 223 ;
224 [label="squared_error = 0.0\nsamples = 1\nvalue = 437.0"] ;
223 -> 224 ;
225 [label="squared_error = 0.0\nsamples = 1\nvalue = 443.0"] ;
223 -> 225 ;
226 [label="squared_error = 0.0\nsamples = 1\nvalue = 395.0"] ;
222 -> 226 ;
227 [label="squared_error = 0.0\nsamples = 1\nvalue = 218.0"] ;
213 -> 227 ;
228 [label="squared_error = 0.0\nsamples = 1\nvalue = 205.0"] ;
212 -> 228 ;
229 [label="squared_error = 0.0\nsamples = 1\nvalue = 189.0"] ;
211 -> 229 ;
230 [label="squared_error = 0.0\nsamples = 1\nvalue = 878.0"] ;
202 -> 230 ;
231 [label="x[24] <= 110.164\nsquared_error = 17469.143\nsamples = 7\nvalue = 447.0"] ;
141 -> 231 ;
232 [label="x[24] <= 97.389\nsquared_error = 12408.688\nsamples = 4\nvalue = 527.25"] ;
231 -> 232 ;
233 [label="squared_error = 0.0\nsamples = 1\nvalue = 656.0"] ;
232 -> 233 ;
234 [label="x[24] <= 108.353\nsquared_error = 9177.556\nsamples = 3\nvalue = 484.333"] ;
232 -> 234 ;
235 [label="x[24] <= 103.771\nsquared_error = 961.0\nsamples = 2\nvalue = 419.0"] ;
234 -> 235 ;
236 [label="squared_error = 0.0\nsamples = 1\nvalue = 388.0"] ;
235 -> 236 ;
237 [label="squared_error = 0.0\nsamples = 1\nvalue = 450.0"] ;
235 -> 237 ;
238 [label="squared_error = 0.0\nsamples = 1\nvalue = 615.0"] ;
234 -> 238 ;
239 [label="x[24] <= 111.691\nsquared_error = 4180.667\nsamples = 3\nvalue = 340.0"] ;
231 -> 239 ;
240 [label="squared_error = 0.0\nsamples = 1\nvalue = 399.0"] ;
239 -> 240 ;
241 [label="x[24] <= 116.582\nsquared_error = 3660.25\nsamples = 2\nvalue = 310.5"] ;
239 -> 241 ;
242 [label="squared_error = 0.0\nsamples = 1\nvalue = 250.0"] ;
241 -> 242 ;
243 [label="squared_error = 0.0\nsamples = 1\nvalue = 371.0"] ;
241 -> 243 ;
244 [label="x[24] <= 108.07\nsquared_error = 8322.0\nsamples = 3\nvalue = 504.0"] ;
140 -> 244 ;
245 [label="x[24] <= 98.121\nsquared_error = 576.0\nsamples = 2\nvalue = 567.0"] ;
244 -> 245 ;
246 [label="squared_error = 0.0\nsamples = 1\nvalue = 591.0"] ;
245 -> 246 ;
247 [label="squared_error = 0.0\nsamples = 1\nvalue = 543.0"] ;
245 -> 247 ;
248 [label="squared_error = 0.0\nsamples = 1\nvalue = 378.0"] ;
244 -> 248 ;
249 [label="x[24] <= 117.589\nsquared_error = 522.889\nsamples = 3\nvalue = 216.333"] ;
139 -> 249 ;
250 [label="x[24] <= 106.334\nsquared_error = 210.25\nsamples = 2\nvalue = 202.5"] ;
249 -> 250 ;
251 [label="squared_error = 0.0\nsamples = 1\nvalue = 217.0"] ;
250 -> 251 ;
252 [label="squared_error = 0.0\nsamples = 1\nvalue = 188.0"] ;
250 -> 252 ;
253 [label="squared_error = 0.0\nsamples = 1\nvalue = 244.0"] ;
249 -> 253 ;
254 [label="x[24] <= 116.018\nsquared_error = 79524.0\nsamples = 2\nvalue = 613.0"] ;
138 -> 254 ;
255 [label="squared_error = 0.0\nsamples = 1\nvalue = 331.0"] ;
254 -> 255 ;
256 [label="squared_error = 0.0\nsamples = 1\nvalue = 895.0"] ;
254 -> 256 ;
257 [label="x[24] <= 111.398\nsquared_error = 11702.222\nsamples = 9\nvalue = 501.667"] ;
137 -> 257 ;
258 [label="x[24] <= 103.585\nsquared_error = 7979.76\nsamples = 5\nvalue = 460.2"] ;
257 -> 258 ;
259 [label="x[24] <= 99.203\nsquared_error = 132.25\nsamples = 2\nvalue = 554.5"] ;
258 -> 259 ;
260 [label="squared_error = 0.0\nsamples = 1\nvalue = 566.0"] ;
259 -> 260 ;
261 [label="squared_error = 0.0\nsamples = 1\nvalue = 543.0"] ;
259 -> 261 ;
262 [label="x[24] <= 104.367\nsquared_error = 3330.889\nsamples = 3\nvalue = 397.333"] ;
258 -> 262 ;
263 [label="squared_error = 0.0\nsamples = 1\nvalue = 333.0"] ;
262 -> 263 ;
264 [label="x[24] <= 107.952\nsquared_error = 1892.25\nsamples = 2\nvalue = 429.5"] ;
262 -> 264 ;
265 [label="squared_error = 0.0\nsamples = 1\nvalue = 473.0"] ;
264 -> 265 ;
266 [label="squared_error = 0.0\nsamples = 1\nvalue = 386.0"] ;
264 -> 266 ;
267 [label="x[24] <= 113.989\nsquared_error = 11519.25\nsamples = 4\nvalue = 553.5"] ;
257 -> 267 ;
268 [label="x[24] <= 112.483\nsquared_error = 380.25\nsamples = 2\nvalue = 654.5"] ;
267 -> 268 ;
269 [label="squared_error = 0.0\nsamples = 1\nvalue = 674.0"] ;
268 -> 269 ;
270 [label="squared_error = 0.0\nsamples = 1\nvalue = 635.0"] ;
268 -> 270 ;
271 [label="x[24] <= 115.296\nsquared_error = 2256.25\nsamples = 2\nvalue = 452.5"] ;
267 -> 271 ;
272 [label="squared_error = 0.0\nsamples = 1\nvalue = 405.0"] ;
271 -> 272 ;
273 [label="squared_error = 0.0\nsamples = 1\nvalue = 500.0"] ;
271 -> 273 ;
274 [label="x[24] <= 101.477\nsquared_error = 62392.472\nsamples = 6\nvalue = 542.167"] ;
136 -> 274 ;
275 [label="x[24] <= 96.675\nsquared_error = 5041.0\nsamples = 2\nvalue = 373.0"] ;
274 -> 275 ;
276 [label="squared_error = 0.0\nsamples = 1\nvalue = 444.0"] ;
275 -> 276 ;
277 [label="squared_error = 0.0\nsamples = 1\nvalue = 302.0"] ;
275 -> 277 ;
278 [label="x[24] <= 106.718\nsquared_error = 69605.188\nsamples = 4\nvalue = 626.75"] ;
274 -> 278 ;
279 [label="x[24] <= 104.139\nsquared_error = 17030.25\nsamples = 2\nvalue = 846.5"] ;
278 -> 279 ;
280 [label="squared_error = 0.0\nsamples = 1\nvalue = 716.0"] ;
279 -> 280 ;
281 [label="squared_error = 0.0\nsamples = 1\nvalue = 977.0"] ;
279 -> 281 ;
282 [label="x[24] <= 108.558\nsquared_error = 25600.0\nsamples = 2\nvalue = 407.0"] ;
278 -> 282 ;
283 [label="squared_error = 0.0\nsamples = 1\nvalue = 247.0"] ;
282 -> 283 ;
284 [label="squared_error = 0.0\nsamples = 1\nvalue = 567.0"] ;
282 -> 284 ;
285 [label="x[14] <= 0.5\nsquared_error = 10201.0\nsamples = 2\nvalue = 655.0"] ;
135 -> 285 ;
286 [label="squared_error = 0.0\nsamples = 1\nvalue = 554.0"] ;
285 -> 286 ;
287 [label="squared_error = 0.0\nsamples = 1\nvalue = 756.0"] ;
285 -> 287 ;
288 [label="x[24] <= 120.394\nsquared_error = 32138.0\nsamples = 3\nvalue = 762.0"] ;
134 -> 288 ;
289 [label="x[24] <= 106.809\nsquared_error = 2450.25\nsamples = 2\nvalue = 885.5"] ;
288 -> 289 ;
290 [label="squared_error = 0.0\nsamples = 1\nvalue = 836.0"] ;
289 -> 290 ;
291 [label="squared_error = 0.0\nsamples = 1\nvalue = 935.0"] ;
289 -> 291 ;
292 [label="squared_error = 0.0\nsamples = 1\nvalue = 515.0"] ;
288 -> 292 ;
293 [label="x[9] <= 0.5\nsquared_error = 21435.945\nsamples = 233\nvalue = 368.386"] ;
133 -> 293 ;
294 [label="x[24] <= 127.913\nsquared_error = 22135.789\nsamples = 202\nvalue = 360.193"] ;
293 -> 294 ;
295 [label="x[24] <= 126.958\nsquared_error = 14515.418\nsamples = 28\nvalue = 309.286"] ;
294 -> 295 ;
296 [label="x[24] <= 125.953\nsquared_error = 13999.498\nsamples = 24\nvalue = 329.208"] ;
295 -> 296 ;
297 [label="x[16] <= 0.5\nsquared_error = 13537.94\nsamples = 20\nvalue = 314.6"] ;
296 -> 297 ;
298 [label="x[5] <= 0.5\nsquared_error = 13144.457\nsamples = 17\nvalue = 332.882"] ;
297 -> 298 ;
299 [label="x[24] <= 123.68\nsquared_error = 13839.449\nsamples = 15\nvalue = 343.867"] ;
298 -> 299 ;
300 [label="x[12] <= 0.5\nsquared_error = 16711.25\nsamples = 8\nvalue = 367.0"] ;
299 -> 300 ;
301 [label="x[24] <= 123.452\nsquared_error = 6115.061\nsamples = 7\nvalue = 326.714"] ;
300 -> 301 ;
302 [label="x[8] <= 0.5\nsquared_error = 4707.556\nsamples = 6\nvalue = 345.333"] ;
301 -> 302 ;
303 [label="x[3] <= 0.5\nsquared_error = 128.667\nsamples = 3\nvalue = 405.0"] ;
302 -> 303 ;
304 [label="x[15] <= 0.5\nsquared_error = 1.0\nsamples = 2\nvalue = 397.0"] ;
303 -> 304 ;
305 [label="squared_error = 0.0\nsamples = 1\nvalue = 398.0"] ;
304 -> 305 ;
306 [label="squared_error = 0.0\nsamples = 1\nvalue = 396.0"] ;
304 -> 306 ;
307 [label="squared_error = 0.0\nsamples = 1\nvalue = 421.0"] ;
303 -> 307 ;
308 [label="x[24] <= 122.556\nsquared_error = 2166.222\nsamples = 3\nvalue = 285.667"] ;
302 -> 308 ;
309 [label="x[24] <= 121.475\nsquared_error = 784.0\nsamples = 2\nvalue = 257.0"] ;
308 -> 309 ;
310 [label="squared_error = 0.0\nsamples = 1\nvalue = 285.0"] ;
309 -> 310 ;
311 [label="squared_error = 0.0\nsamples = 1\nvalue = 229.0"] ;
309 -> 311 ;
312 [label="squared_error = 0.0\nsamples = 1\nvalue = 343.0"] ;
308 -> 312 ;
313 [label="squared_error = 0.0\nsamples = 1\nvalue = 215.0"] ;
301 -> 313 ;
314 [label="squared_error = 0.0\nsamples = 1\nvalue = 649.0"] ;
300 -> 314 ;
315 [label="x[8] <= 0.5\nsquared_error = 9246.816\nsamples = 7\nvalue = 317.429"] ;
299 -> 315 ;
316 [label="x[6] <= 0.5\nsquared_error = 1284.24\nsamples = 5\nvalue = 270.4"] ;
315 -> 316 ;
317 [label="x[12] <= 0.5\nsquared_error = 457.688\nsamples = 4\nvalue = 255.25"] ;
316 -> 317 ;
318 [label="x[24] <= 124.416\nsquared_error = 30.25\nsamples = 2\nvalue = 274.5"] ;
317 -> 318 ;
319 [label="squared_error = 0.0\nsamples = 1\nvalue = 269.0"] ;
318 -> 319 ;
320 [label="squared_error = 0.0\nsamples = 1\nvalue = 280.0"] ;
318 -> 320 ;
321 [label="x[24] <= 124.522\nsquared_error = 144.0\nsamples = 2\nvalue = 236.0"] ;
317 -> 321 ;
322 [label="squared_error = 0.0\nsamples = 1\nvalue = 224.0"] ;
321 -> 322 ;
323 [label="squared_error = 0.0\nsamples = 1\nvalue = 248.0"] ;
321 -> 323 ;
324 [label="squared_error = 0.0\nsamples = 1\nvalue = 331.0"] ;
316 -> 324 ;
325 [label="x[24] <= 124.775\nsquared_error = 9801.0\nsamples = 2\nvalue = 435.0"] ;
315 -> 325 ;
326 [label="squared_error = 0.0\nsamples = 1\nvalue = 336.0"] ;
325 -> 326 ;
327 [label="squared_error = 0.0\nsamples = 1\nvalue = 534.0"] ;
325 -> 327 ;
328 [label="x[24] <= 123.293\nsquared_error = 240.25\nsamples = 2\nvalue = 250.5"] ;
298 -> 328 ;
329 [label="squared_error = 0.0\nsamples = 1\nvalue = 235.0"] ;
328 -> 329 ;
330 [label="squared_error = 0.0\nsamples = 1\nvalue = 266.0"] ;
328 -> 330 ;
331 [label="x[24] <= 121.882\nsquared_error = 3140.667\nsamples = 3\nvalue = 211.0"] ;
297 -> 331 ;
332 [label="squared_error = 0.0\nsamples = 1\nvalue = 290.0"] ;
331 -> 332 ;
333 [label="x[24] <= 123.935\nsquared_error = 30.25\nsamples = 2\nvalue = 171.5"] ;
331 -> 333 ;
334 [label="squared_error = 0.0\nsamples = 1\nvalue = 177.0"] ;
333 -> 334 ;
335 [label="squared_error = 0.0\nsamples = 1\nvalue = 166.0"] ;
333 -> 335 ;
336 [label="x[16] <= 0.5\nsquared_error = 9905.188\nsamples = 4\nvalue = 402.25"] ;
296 -> 336 ;
337 [label="x[13] <= 0.5\nsquared_error = 3240.222\nsamples = 3\nvalue = 352.333"] ;
336 -> 337 ;
338 [label="x[24] <= 126.402\nsquared_error = 20.25\nsamples = 2\nvalue = 392.5"] ;
337 -> 338 ;
339 [label="squared_error = 0.0\nsamples = 1\nvalue = 388.0"] ;
338 -> 339 ;
340 [label="squared_error = 0.0\nsamples = 1\nvalue = 397.0"] ;
338 -> 340 ;
341 [label="squared_error = 0.0\nsamples = 1\nvalue = 272.0"] ;
337 -> 341 ;
342 [label="squared_error = 0.0\nsamples = 1\nvalue = 552.0"] ;
336 -> 342 ;
343 [label="x[24] <= 127.08\nsquared_error = 940.688\nsamples = 4\nvalue = 189.75"] ;
295 -> 343 ;
344 [label="squared_error = 0.0\nsamples = 1\nvalue = 227.0"] ;
343 -> 344 ;
345 [label="x[24] <= 127.828\nsquared_error = 637.556\nsamples = 3\nvalue = 177.333"] ;
343 -> 345 ;
346 [label="x[24] <= 127.5\nsquared_error = 2.25\nsamples = 2\nvalue = 159.5"] ;
345 -> 346 ;
347 [label="squared_error = 0.0\nsamples = 1\nvalue = 161.0"] ;
346 -> 347 ;
348 [label="squared_error = 0.0\nsamples = 1\nvalue = 158.0"] ;
346 -> 348 ;
349 [label="squared_error = 0.0\nsamples = 1\nvalue = 213.0"] ;
345 -> 349 ;
350 [label="x[24] <= 129.337\nsquared_error = 22877.915\nsamples = 174\nvalue = 368.385"] ;
294 -> 350 ;
351 [label="x[5] <= 0.5\nsquared_error = 10824.688\nsamples = 4\nvalue = 529.75"] ;
350 -> 351 ;
352 [label="x[15] <= 0.5\nsquared_error = 2442.667\nsamples = 3\nvalue = 475.0"] ;
351 -> 352 ;
353 [label="x[24] <= 128.544\nsquared_error = 196.0\nsamples = 2\nvalue = 509.0"] ;
352 -> 353 ;
354 [label="squared_error = 0.0\nsamples = 1\nvalue = 495.0"] ;
353 -> 354 ;
355 [label="squared_error = 0.0\nsamples = 1\nvalue = 523.0"] ;
353 -> 355 ;
356 [label="squared_error = -0.0\nsamples = 1\nvalue = 407.0"] ;
352 -> 356 ;
357 [label="squared_error = 0.0\nsamples = 1\nvalue = 694.0"] ;
351 -> 357 ;
358 [label="x[24] <= 129.587\nsquared_error = 22534.43\nsamples = 170\nvalue = 364.588"] ;
350 -> 358 ;
359 [label="x[8] <= 0.5\nsquared_error = 1444.0\nsamples = 2\nvalue = 179.0"] ;
358 -> 359 ;
360 [label="squared_error = 0.0\nsamples = 1\nvalue = 217.0"] ;
359 -> 360 ;
361 [label="squared_error = 0.0\nsamples = 1\nvalue = 141.0"] ;
359 -> 361 ;
362 [label="x[4] <= 0.5\nsquared_error = 22370.59\nsamples = 168\nvalue = 366.798"] ;
358 -> 362 ;
363 [label="x[17] <= 0.5\nsquared_error = 22495.675\nsamples = 163\nvalue = 370.313"] ;
362 -> 363 ;
364 [label="x[24] <= 131.964\nsquared_error = 23380.796\nsamples = 150\nvalue = 375.48"] ;
363 -> 364 ;
365 [label="x[24] <= 131.735\nsquared_error = 23499.5\nsamples = 4\nvalue = 526.0"] ;
364 -> 365 ;
366 [label="x[8] <= 0.5\nsquared_error = 3108.667\nsamples = 3\nvalue = 442.0"] ;
365 -> 366 ;
367 [label="x[12] <= 0.5\nsquared_error = 100.0\nsamples = 2\nvalue = 481.0"] ;
366 -> 367 ;
368 [label="squared_error = 0.0\nsamples = 1\nvalue = 491.0"] ;
367 -> 368 ;
369 [label="squared_error = 0.0\nsamples = 1\nvalue = 471.0"] ;
367 -> 369 ;
370 [label="squared_error = 0.0\nsamples = 1\nvalue = 364.0"] ;
366 -> 370 ;
371 [label="squared_error = -0.0\nsamples = 1\nvalue = 778.0"] ;
365 -> 371 ;
372 [label="x[24] <= 133.102\nsquared_error = 22739.818\nsamples = 146\nvalue = 371.356"] ;
364 -> 372 ;
373 [label="x[15] <= 0.5\nsquared_error = 906.25\nsamples = 4\nvalue = 238.5"] ;
372 -> 373 ;
374 [label="x[1] <= 0.5\nsquared_error = 205.556\nsamples = 3\nvalue = 222.667"] ;
373 -> 374 ;
375 [label="squared_error = 0.0\nsamples = 1\nvalue = 206.0"] ;
374 -> 375 ;
376 [label="x[24] <= 132.949\nsquared_error = 100.0\nsamples = 2\nvalue = 231.0"] ;
374 -> 376 ;
377 [label="squared_error = 0.0\nsamples = 1\nvalue = 241.0"] ;
376 -> 377 ;
378 [label="squared_error = 0.0\nsamples = 1\nvalue = 221.0"] ;
376 -> 378 ;
379 [label="squared_error = 0.0\nsamples = 1\nvalue = 286.0"] ;
373 -> 379 ;
380 [label="x[24] <= 133.242\nsquared_error = 22843.638\nsamples = 142\nvalue = 375.099"] ;
372 -> 380 ;
381 [label="squared_error = 0.0\nsamples = 1\nvalue = 694.0"] ;
380 -> 381 ;
382 [label="x[24] <= 134.376\nsquared_error = 22279.271\nsamples = 141\nvalue = 372.837"] ;
380 -> 382 ;
383 [label="x[12] <= 0.5\nsquared_error = 1920.188\nsamples = 4\nvalue = 254.25"] ;
382 -> 383 ;
384 [label="x[24] <= 133.607\nsquared_error = 946.889\nsamples = 3\nvalue = 274.333"] ;
383 -> 384 ;
385 [label="squared_error = 0.0\nsamples = 1\nvalue = 314.0"] ;
384 -> 385 ;
386 [label="x[24] <= 134.062\nsquared_error = 240.25\nsamples = 2\nvalue = 254.5"] ;
384 -> 386 ;
387 [label="squared_error = 0.0\nsamples = 1\nvalue = 239.0"] ;
386 -> 387 ;
388 [label="squared_error = 0.0\nsamples = 1\nvalue = 270.0"] ;
386 -> 388 ;
389 [label="squared_error = 0.0\nsamples = 1\nvalue = 194.0"] ;
383 -> 389 ;
390 [label="x[8] <= 0.5\nsquared_error = 22451.115\nsamples = 137\nvalue = 376.299"] ;
382 -> 390 ;
391 [label="x[24] <= 146.275\nsquared_error = 21025.134\nsamples = 118\nvalue = 368.322"] ;
390 -> 391 ;
392 [label="x[24] <= 143.109\nsquared_error = 20271.484\nsamples = 45\nvalue = 343.733"] ;
391 -> 392 ;
393 [label="x[2] <= 0.5\nsquared_error = 22828.373\nsamples = 31\nvalue = 380.581"] ;
392 -> 393 ;
394 [label="x[6] <= 0.5\nsquared_error = 22216.799\nsamples = 29\nvalue = 392.448"] ;
393 -> 394 ;
395 [label="x[5] <= 0.5\nsquared_error = 15544.021\nsamples = 24\nvalue = 376.25"] ;
394 -> 395 ;
396 [label="x[24] <= 139.106\nsquared_error = 14897.1\nsamples = 23\nvalue = 368.826"] ;
395 -> 396 ;
397 [label="x[12] <= 0.5\nsquared_error = 12701.633\nsamples = 14\nvalue = 401.286"] ;
396 -> 397 ;
398 [label="x[24] <= 138.816\nsquared_error = 4655.58\nsamples = 9\nvalue = 346.556"] ;
397 -> 398 ;
399 [label="x[20] <= 0.5\nsquared_error = 1660.776\nsamples = 7\nvalue = 318.286"] ;
398 -> 399 ;
400 [label="x[24] <= 136.104\nsquared_error = 1108.806\nsamples = 6\nvalue = 329.167"] ;
399 -> 400 ;
401 [label="x[24] <= 135.714\nsquared_error = 1305.688\nsamples = 4\nvalue = 318.75"] ;
400 -> 401 ;
402 [label="x[24] <= 135.479\nsquared_error = 258.667\nsamples = 3\nvalue = 338.0"] ;
401 -> 402 ;
403 [label="x[0] <= 0.5\nsquared_error = 25.0\nsamples = 2\nvalue = 327.0"] ;
402 -> 403 ;
404 [label="squared_error = 0.0\nsamples = 1\nvalue = 332.0"] ;
403 -> 404 ;
405 [label="squared_error = 0.0\nsamples = 1\nvalue = 322.0"] ;
403 -> 405 ;
406 [label="squared_error = 0.0\nsamples = 1\nvalue = 360.0"] ;
402 -> 406 ;
407 [label="squared_error = 0.0\nsamples = 1\nvalue = 261.0"] ;
401 -> 407 ;
408 [label="x[24] <= 137.573\nsquared_error = 64.0\nsamples = 2\nvalue = 350.0"] ;
400 -> 408 ;
409 [label="squared_error = 0.0\nsamples = 1\nvalue = 358.0"] ;
408 -> 409 ;
410 [label="squared_error = 0.0\nsamples = 1\nvalue = 342.0"] ;
408 -> 410 ;
411 [label="squared_error = 0.0\nsamples = 1\nvalue = 253.0"] ;
399 -> 411 ;
412 [label="x[24] <= 138.994\nsquared_error = 2550.25\nsamples = 2\nvalue = 445.5"] ;
398 -> 412 ;
413 [label="squared_error = 0.0\nsamples = 1\nvalue = 395.0"] ;
412 -> 413 ;
414 [label="squared_error = 0.0\nsamples = 1\nvalue = 496.0"] ;
412 -> 414 ;
415 [label="x[24] <= 138.022\nsquared_error = 12087.76\nsamples = 5\nvalue = 499.8"] ;
397 -> 415 ;
416 [label="x[24] <= 137.368\nsquared_error = 3493.5\nsamples = 4\nvalue = 548.0"] ;
415 -> 416 ;
417 [label="x[24] <= 136.295\nsquared_error = 1058.0\nsamples = 3\nvalue = 578.0"] ;
416 -> 417 ;
418 [label="squared_error = 0.0\nsamples = 1\nvalue = 601.0"] ;
417 -> 418 ;
419 [label="x[24] <= 136.73\nsquared_error = 1190.25\nsamples = 2\nvalue = 566.5"] ;
417 -> 419 ;
420 [label="squared_error = 0.0\nsamples = 1\nvalue = 532.0"] ;
419 -> 420 ;
421 [label="squared_error = 0.0\nsamples = 1\nvalue = 601.0"] ;
419 -> 421 ;
422 [label="squared_error = 0.0\nsamples = 1\nvalue = 458.0"] ;
416 -> 422 ;
423 [label="squared_error = 0.0\nsamples = 1\nvalue = 307.0"] ;
415 -> 423 ;
424 [label="x[24] <= 140.246\nsquared_error = 14123.778\nsamples = 9\nvalue = 318.333"] ;
396 -> 424 ;
425 [label="x[14] <= 0.5\nsquared_error = 9987.04\nsamples = 5\nvalue = 264.4"] ;
424 -> 425 ;
426 [label="x[12] <= 0.5\nsquared_error = 1250.0\nsamples = 4\nvalue = 217.0"] ;
425 -> 426 ;
427 [label="x[24] <= 139.625\nsquared_error = 289.0\nsamples = 2\nvalue = 186.0"] ;
426 -> 427 ;
428 [label="squared_error = 0.0\nsamples = 1\nvalue = 169.0"] ;
427 -> 428 ;
429 [label="squared_error = 0.0\nsamples = 1\nvalue = 203.0"] ;
427 -> 429 ;
430 [label="x[24] <= 139.707\nsquared_error = 289.0\nsamples = 2\nvalue = 248.0"] ;
426 -> 430 ;
431 [label="squared_error = 0.0\nsamples = 1\nvalue = 231.0"] ;
430 -> 431 ;
432 [label="squared_error = 0.0\nsamples = 1\nvalue = 265.0"] ;
430 -> 432 ;
433 [label="squared_error = 0.0\nsamples = 1\nvalue = 454.0"] ;
425 -> 433 ;
434 [label="x[20] <= 0.5\nsquared_error = 11113.688\nsamples = 4\nvalue = 385.75"] ;
424 -> 434 ;
435 [label="x[3] <= 0.5\nsquared_error = 56.0\nsamples = 3\nvalue = 325.0"] ;
434 -> 435 ;
436 [label="x[12] <= 0.5\nsquared_error = 9.0\nsamples = 2\nvalue = 320.0"] ;
435 -> 436 ;
437 [label="squared_error = 0.0\nsamples = 1\nvalue = 317.0"] ;
436 -> 437 ;
438 [label="squared_error = 0.0\nsamples = 1\nvalue = 323.0"] ;
436 -> 438 ;
439 [label="squared_error = 0.0\nsamples = 1\nvalue = 335.0"] ;
435 -> 439 ;
440 [label="squared_error = 0.0\nsamples = 1\nvalue = 568.0"] ;
434 -> 440 ;
441 [label="squared_error = 0.0\nsamples = 1\nvalue = 547.0"] ;
395 -> 441 ;
442 [label="x[24] <= 140.41\nsquared_error = 46941.36\nsamples = 5\nvalue = 470.2"] ;
394 -> 442 ;
443 [label="x[24] <= 137.472\nsquared_error = 63616.222\nsamples = 3\nvalue = 546.667"] ;
442 -> 443 ;
444 [label="x[24] <= 135.011\nsquared_error = 4422.25\nsamples = 2\nvalue = 372.5"] ;
443 -> 444 ;
445 [label="squared_error = 0.0\nsamples = 1\nvalue = 306.0"] ;
444 -> 445 ;
446 [label="squared_error = 0.0\nsamples = 1\nvalue = 439.0"] ;
444 -> 446 ;
447 [label="squared_error = 0.0\nsamples = 1\nvalue = 895.0"] ;
443 -> 447 ;
448 [label="x[24] <= 141.981\nsquared_error = 2.25\nsamples = 2\nvalue = 355.5"] ;
442 -> 448 ;
449 [label="squared_error = 0.0\nsamples = 1\nvalue = 354.0"] ;
448 -> 449 ;
450 [label="squared_error = 0.0\nsamples = 1\nvalue = 357.0"] ;
448 -> 450 ;
451 [label="x[24] <= 136.019\nsquared_error = 42.25\nsamples = 2\nvalue = 208.5"] ;
393 -> 451 ;
452 [label="squared_error = 0.0\nsamples = 1\nvalue = 215.0"] ;
451 -> 452 ;
453 [label="squared_error = 0.0\nsamples = 1\nvalue = 202.0"] ;
451 -> 453 ;
454 [label="x[24] <= 143.658\nsquared_error = 4946.408\nsamples = 14\nvalue = 262.143"] ;
392 -> 454 ;
455 [label="x[6] <= 0.5\nsquared_error = 1335.36\nsamples = 5\nvalue = 205.2"] ;
454 -> 455 ;
456 [label="x[15] <= 0.5\nsquared_error = 90.25\nsamples = 2\nvalue = 170.5"] ;
455 -> 456 ;
457 [label="squared_error = 0.0\nsamples = 1\nvalue = 161.0"] ;
456 -> 457 ;
458 [label="squared_error = 0.0\nsamples = 1\nvalue = 180.0"] ;
456 -> 458 ;
459 [label="x[24] <= 143.231\nsquared_error = 827.556\nsamples = 3\nvalue = 228.333"] ;
455 -> 459 ;
460 [label="squared_error = 0.0\nsamples = 1\nvalue = 189.0"] ;
459 -> 460 ;
461 [label="x[24] <= 143.481\nsquared_error = 81.0\nsamples = 2\nvalue = 248.0"] ;
459 -> 461 ;
462 [label="squared_error = 0.0\nsamples = 1\nvalue = 257.0"] ;
461 -> 462 ;
463 [label="squared_error = 0.0\nsamples = 1\nvalue = 239.0"] ;
461 -> 463 ;
464 [label="x[15] <= 0.5\nsquared_error = 4150.395\nsamples = 9\nvalue = 293.778"] ;
454 -> 464 ;
465 [label="x[5] <= 0.5\nsquared_error = 2736.859\nsamples = 8\nvalue = 279.125"] ;
464 -> 465 ;
466 [label="x[24] <= 145.123\nsquared_error = 1574.472\nsamples = 6\nvalue = 260.833"] ;
465 -> 466 ;
467 [label="x[16] <= 0.5\nsquared_error = 903.5\nsamples = 4\nvalue = 239.0"] ;
466 -> 467 ;
468 [label="x[24] <= 144.0\nsquared_error = 2.889\nsamples = 3\nvalue = 256.333"] ;
467 -> 468 ;
469 [label="squared_error = 0.0\nsamples = 1\nvalue = 254.0"] ;
468 -> 469 ;
470 [label="x[24] <= 144.71\nsquared_error = 0.25\nsamples = 2\nvalue = 257.5"] ;
468 -> 470 ;
471 [label="squared_error = 0.0\nsamples = 1\nvalue = 258.0"] ;
470 -> 471 ;
472 [label="squared_error = 0.0\nsamples = 1\nvalue = 257.0"] ;
470 -> 472 ;
473 [label="squared_error = 0.0\nsamples = 1\nvalue = 187.0"] ;
467 -> 473 ;
474 [label="x[16] <= 0.5\nsquared_error = 56.25\nsamples = 2\nvalue = 304.5"] ;
466 -> 474 ;
475 [label="squared_error = 0.0\nsamples = 1\nvalue = 297.0"] ;
474 -> 475 ;
476 [label="squared_error = 0.0\nsamples = 1\nvalue = 312.0"] ;
474 -> 476 ;
477 [label="x[24] <= 145.285\nsquared_error = 2209.0\nsamples = 2\nvalue = 334.0"] ;
465 -> 477 ;
478 [label="squared_error = 0.0\nsamples = 1\nvalue = 381.0"] ;
477 -> 478 ;
479 [label="squared_error = 0.0\nsamples = 1\nvalue = 287.0"] ;
477 -> 479 ;
480 [label="squared_error = 0.0\nsamples = 1\nvalue = 411.0"] ;
464 -> 480 ;
481 [label="x[24] <= 148.333\nsquared_error = 20887.263\nsamples = 73\nvalue = 383.479"] ;
391 -> 481 ;
482 [label="x[1] <= 0.5\nsquared_error = 29428.41\nsamples = 10\nvalue = 476.7"] ;
481 -> 482 ;
483 [label="x[24] <= 148.054\nsquared_error = 17375.358\nsamples = 9\nvalue = 437.556"] ;
482 -> 483 ;
484 [label="x[24] <= 147.927\nsquared_error = 3056.438\nsamples = 8\nvalue = 394.75"] ;
483 -> 484 ;
485 [label="x[5] <= 0.5\nsquared_error = 2388.571\nsamples = 7\nvalue = 383.0"] ;
484 -> 485 ;
486 [label="x[16] <= 0.5\nsquared_error = 1692.917\nsamples = 6\nvalue = 370.5"] ;
485 -> 486 ;
487 [label="x[24] <= 146.592\nsquared_error = 938.0\nsamples = 5\nvalue = 357.0"] ;
486 -> 487 ;
488 [label="squared_error = 0.0\nsamples = 1\nvalue = 413.0"] ;
487 -> 488 ;
489 [label="x[15] <= 0.5\nsquared_error = 192.5\nsamples = 4\nvalue = 343.0"] ;
487 -> 489 ;
490 [label="x[24] <= 147.257\nsquared_error = 21.556\nsamples = 3\nvalue = 350.667"] ;
489 -> 490 ;
491 [label="x[12] <= 0.5\nsquared_error = 2.25\nsamples = 2\nvalue = 347.5"] ;
490 -> 491 ;
492 [label="squared_error = 0.0\nsamples = 1\nvalue = 346.0"] ;
491 -> 492 ;
493 [label="squared_error = 0.0\nsamples = 1\nvalue = 349.0"] ;
491 -> 493 ;
494 [label="squared_error = 0.0\nsamples = 1\nvalue = 357.0"] ;
490 -> 494 ;
495 [label="squared_error = 0.0\nsamples = 1\nvalue = 320.0"] ;
489 -> 495 ;
496 [label="squared_error = 0.0\nsamples = 1\nvalue = 438.0"] ;
486 -> 496 ;
497 [label="squared_error = 0.0\nsamples = 1\nvalue = 458.0"] ;
485 -> 497 ;
498 [label="squared_error = 0.0\nsamples = 1\nvalue = 477.0"] ;
484 -> 498 ;
499 [label="squared_error = 0.0\nsamples = 1\nvalue = 780.0"] ;
483 -> 499 ;
500 [label="squared_error = 0.0\nsamples = 1\nvalue = 829.0"] ;
482 -> 500 ;
501 [label="x[24] <= 156.478\nsquared_error = 17933.201\nsamples = 63\nvalue = 368.683"] ;
481 -> 501 ;
502 [label="x[24] <= 155.072\nsquared_error = 9300.397\nsamples = 35\nvalue = 343.343"] ;
501 -> 502 ;
503 [label="x[24] <= 153.685\nsquared_error = 9971.749\nsamples = 28\nvalue = 358.536"] ;
502 -> 503 ;
504 [label="x[13] <= 0.5\nsquared_error = 9035.433\nsamples = 23\nvalue = 337.957"] ;
503 -> 504 ;
505 [label="x[24] <= 150.628\nsquared_error = 8184.231\nsamples = 22\nvalue = 345.364"] ;
504 -> 505 ;
506 [label="x[5] <= 0.5\nsquared_error = 9738.0\nsamples = 6\nvalue = 393.0"] ;
505 -> 506 ;
507 [label="x[1] <= 0.5\nsquared_error = 4992.24\nsamples = 5\nvalue = 359.6"] ;
506 -> 507 ;
508 [label="x[12] <= 0.5\nsquared_error = 2006.25\nsamples = 4\nvalue = 330.5"] ;
507 -> 508 ;
509 [label="x[24] <= 149.378\nsquared_error = 6.25\nsamples = 2\nvalue = 355.5"] ;
508 -> 509 ;
510 [label="squared_error = 0.0\nsamples = 1\nvalue = 353.0"] ;
509 -> 510 ;
511 [label="squared_error = 0.0\nsamples = 1\nvalue = 358.0"] ;
509 -> 511 ;
512 [label="x[24] <= 148.704\nsquared_error = 2756.25\nsamples = 2\nvalue = 305.5"] ;
508 -> 512 ;
513 [label="squared_error = 0.0\nsamples = 1\nvalue = 358.0"] ;
512 -> 513 ;
514 [label="squared_error = 0.0\nsamples = 1\nvalue = 253.0"] ;
512 -> 514 ;
515 [label="squared_error = 0.0\nsamples = 1\nvalue = 476.0"] ;
507 -> 515 ;
516 [label="squared_error = 0.0\nsamples = 1\nvalue = 560.0"] ;
506 -> 516 ;
517 [label="x[24] <= 151.487\nsquared_error = 6431.5\nsamples = 16\nvalue = 327.5"] ;
505 -> 517 ;
518 [label="x[23] <= 0.5\nsquared_error = 106.889\nsamples = 3\nvalue = 233.667"] ;
517 -> 518 ;
519 [label="x[1] <= 0.5\nsquared_error = 20.25\nsamples = 2\nvalue = 240.5"] ;
518 -> 519 ;
520 [label="squared_error = 0.0\nsamples = 1\nvalue = 236.0"] ;
519 -> 520 ;
521 [label="squared_error = 0.0\nsamples = 1\nvalue = 245.0"] ;
519 -> 521 ;
522 [label="squared_error = 0.0\nsamples = 1\nvalue = 220.0"] ;
518 -> 522 ;
523 [label="x[12] <= 0.5\nsquared_error = 5390.284\nsamples = 13\nvalue = 349.154"] ;
517 -> 523 ;
524 [label="x[16] <= 0.5\nsquared_error = 3892.743\nsamples = 12\nvalue = 336.917"] ;
523 -> 524 ;
525 [label="x[24] <= 153.567\nsquared_error = 3317.24\nsamples = 10\nvalue = 324.4"] ;
524 -> 525 ;
526 [label="x[24] <= 152.982\nsquared_error = 3173.802\nsamples = 9\nvalue = 331.556"] ;
525 -> 526 ;
527 [label="x[14] <= 0.5\nsquared_error = 1889.6\nsamples = 5\nvalue = 303.0"] ;
526 -> 527 ;
528 [label="x[6] <= 0.5\nsquared_error = 480.889\nsamples = 3\nvalue = 273.333"] ;
527 -> 528 ;
529 [label="x[15] <= 0.5\nsquared_error = 16.0\nsamples = 2\nvalue = 258.0"] ;
528 -> 529 ;
530 [label="squared_error = 0.0\nsamples = 1\nvalue = 262.0"] ;
529 -> 530 ;
531 [label="squared_error = 0.0\nsamples = 1\nvalue = 254.0"] ;
529 -> 531 ;
532 [label="squared_error = 0.0\nsamples = 1\nvalue = 304.0"] ;
528 -> 532 ;
533 [label="x[24] <= 152.217\nsquared_error = 702.25\nsamples = 2\nvalue = 347.5"] ;
527 -> 533 ;
534 [label="squared_error = 0.0\nsamples = 1\nvalue = 374.0"] ;
533 -> 534 ;
535 [label="squared_error = 0.0\nsamples = 1\nvalue = 321.0"] ;
533 -> 535 ;
536 [label="x[24] <= 153.299\nsquared_error = 2485.688\nsamples = 4\nvalue = 367.25"] ;
526 -> 536 ;
537 [label="x[20] <= 0.5\nsquared_error = 36.0\nsamples = 2\nvalue = 416.0"] ;
536 -> 537 ;
538 [label="squared_error = 0.0\nsamples = 1\nvalue = 422.0"] ;
537 -> 538 ;
539 [label="squared_error = 0.0\nsamples = 1\nvalue = 410.0"] ;
537 -> 539 ;
540 [label="x[20] <= 0.5\nsquared_error = 182.25\nsamples = 2\nvalue = 318.5"] ;
536 -> 540 ;
541 [label="squared_error = 0.0\nsamples = 1\nvalue = 332.0"] ;
540 -> 541 ;
542 [label="squared_error = 0.0\nsamples = 1\nvalue = 305.0"] ;
540 -> 542 ;
543 [label="squared_error = 0.0\nsamples = 1\nvalue = 260.0"] ;
525 -> 543 ;
544 [label="x[24] <= 152.955\nsquared_error = 2070.25\nsamples = 2\nvalue = 399.5"] ;
524 -> 544 ;
545 [label="squared_error = 0.0\nsamples = 1\nvalue = 354.0"] ;
544 -> 545 ;
546 [label="squared_error = 0.0\nsamples = 1\nvalue = 445.0"] ;
544 -> 546 ;
547 [label="squared_error = 0.0\nsamples = 1\nvalue = 496.0"] ;
523 -> 547 ;
548 [label="squared_error = 0.0\nsamples = 1\nvalue = 175.0"] ;
504 -> 548 ;
549 [label="x[5] <= 0.5\nsquared_error = 3369.36\nsamples = 5\nvalue = 453.2"] ;
503 -> 549 ;
550 [label="x[13] <= 0.5\nsquared_error = 1686.222\nsamples = 3\nvalue = 491.333"] ;
549 -> 550 ;
551 [label="x[24] <= 154.15\nsquared_error = 64.0\nsamples = 2\nvalue = 520.0"] ;
550 -> 551 ;
552 [label="squared_error = 0.0\nsamples = 1\nvalue = 512.0"] ;
551 -> 552 ;
553 [label="squared_error = 0.0\nsamples = 1\nvalue = 528.0"] ;
551 -> 553 ;
554 [label="squared_error = 0.0\nsamples = 1\nvalue = 434.0"] ;
550 -> 554 ;
555 [label="x[24] <= 154.838\nsquared_error = 441.0\nsamples = 2\nvalue = 396.0"] ;
549 -> 555 ;
556 [label="squared_error = 0.0\nsamples = 1\nvalue = 417.0"] ;
555 -> 556 ;
557 [label="squared_error = 0.0\nsamples = 1\nvalue = 375.0"] ;
555 -> 557 ;
558 [label="x[24] <= 156.411\nsquared_error = 1998.531\nsamples = 7\nvalue = 282.571"] ;
502 -> 558 ;
559 [label="x[14] <= 0.5\nsquared_error = 1524.472\nsamples = 6\nvalue = 271.833"] ;
558 -> 559 ;
560 [label="x[24] <= 155.436\nsquared_error = 1422.64\nsamples = 5\nvalue = 263.6"] ;
559 -> 560 ;
561 [label="x[24] <= 155.24\nsquared_error = 756.25\nsamples = 2\nvalue = 240.5"] ;
560 -> 561 ;
562 [label="squared_error = 0.0\nsamples = 1\nvalue = 268.0"] ;
561 -> 562 ;
563 [label="squared_error = 0.0\nsamples = 1\nvalue = 213.0"] ;
561 -> 563 ;
564 [label="x[24] <= 156.222\nsquared_error = 1274.0\nsamples = 3\nvalue = 279.0"] ;
560 -> 564 ;
565 [label="x[20] <= 0.5\nsquared_error = 324.0\nsamples = 2\nvalue = 302.0"] ;
564 -> 565 ;
566 [label="squared_error = 0.0\nsamples = 1\nvalue = 320.0"] ;
565 -> 566 ;
567 [label="squared_error = 0.0\nsamples = 1\nvalue = 284.0"] ;
565 -> 567 ;
568 [label="squared_error = 0.0\nsamples = 1\nvalue = 233.0"] ;
564 -> 568 ;
569 [label="squared_error = 0.0\nsamples = 1\nvalue = 313.0"] ;
559 -> 569 ;
570 [label="squared_error = 0.0\nsamples = 1\nvalue = 347.0"] ;
558 -> 570 ;
571 [label="x[24] <= 157.859\nsquared_error = 26918.301\nsamples = 28\nvalue = 400.357"] ;
501 -> 571 ;
572 [label="x[20] <= 0.5\nsquared_error = 45601.143\nsamples = 7\nvalue = 526.0"] ;
571 -> 572 ;
573 [label="x[5] <= 0.5\nsquared_error = 13651.139\nsamples = 6\nvalue = 450.833"] ;
572 -> 573 ;
574 [label="x[16] <= 0.5\nsquared_error = 5097.36\nsamples = 5\nvalue = 494.2"] ;
573 -> 574 ;
575 [label="x[24] <= 156.795\nsquared_error = 351.25\nsamples = 4\nvalue = 459.5"] ;
574 -> 575 ;
576 [label="x[2] <= 0.5\nsquared_error = 9.0\nsamples = 2\nvalue = 442.0"] ;
575 -> 576 ;
577 [label="squared_error = 0.0\nsamples = 1\nvalue = 439.0"] ;
576 -> 577 ;
578 [label="squared_error = 0.0\nsamples = 1\nvalue = 445.0"] ;
576 -> 578 ;
579 [label="x[6] <= 0.5\nsquared_error = 81.0\nsamples = 2\nvalue = 477.0"] ;
575 -> 579 ;
580 [label="squared_error = 0.0\nsamples = 1\nvalue = 486.0"] ;
579 -> 580 ;
581 [label="squared_error = 0.0\nsamples = 1\nvalue = 468.0"] ;
579 -> 581 ;
582 [label="squared_error = 0.0\nsamples = 1\nvalue = 633.0"] ;
574 -> 582 ;
583 [label="squared_error = 0.0\nsamples = 1\nvalue = 234.0"] ;
573 -> 583 ;
584 [label="squared_error = 0.0\nsamples = 1\nvalue = 977.0"] ;
572 -> 584 ;
585 [label="x[24] <= 160.979\nsquared_error = 13674.63\nsamples = 21\nvalue = 358.476"] ;
571 -> 585 ;
586 [label="x[24] <= 159.518\nsquared_error = 13508.38\nsamples = 11\nvalue = 325.727"] ;
585 -> 586 ;
587 [label="x[24] <= 159.075\nsquared_error = 15710.333\nsamples = 6\nvalue = 387.0"] ;
586 -> 587 ;
588 [label="x[13] <= 0.5\nsquared_error = 985.688\nsamples = 4\nvalue = 325.75"] ;
587 -> 588 ;
589 [label="x[15] <= 0.5\nsquared_error = 342.889\nsamples = 3\nvalue = 341.333"] ;
588 -> 589 ;
590 [label="x[24] <= 158.406\nsquared_error = 20.25\nsamples = 2\nvalue = 328.5"] ;
589 -> 590 ;
591 [label="squared_error = 0.0\nsamples = 1\nvalue = 333.0"] ;
590 -> 591 ;
592 [label="squared_error = 0.0\nsamples = 1\nvalue = 324.0"] ;
590 -> 592 ;
593 [label="squared_error = 0.0\nsamples = 1\nvalue = 367.0"] ;
589 -> 593 ;
594 [label="squared_error = 0.0\nsamples = 1\nvalue = 279.0"] ;
588 -> 594 ;
595 [label="x[12] <= 0.5\nsquared_error = 22650.25\nsamples = 2\nvalue = 509.5"] ;
587 -> 595 ;
596 [label="squared_error = 0.0\nsamples = 1\nvalue = 359.0"] ;
595 -> 596 ;
597 [label="squared_error = 0.0\nsamples = 1\nvalue = 660.0"] ;
595 -> 597 ;
598 [label="x[12] <= 0.5\nsquared_error = 954.56\nsamples = 5\nvalue = 252.2"] ;
586 -> 598 ;
599 [label="x[6] <= 0.5\nsquared_error = 118.222\nsamples = 3\nvalue = 228.667"] ;
598 -> 599 ;
600 [label="x[2] <= 0.5\nsquared_error = 16.0\nsamples = 2\nvalue = 236.0"] ;
599 -> 600 ;
601 [label="squared_error = 0.0\nsamples = 1\nvalue = 240.0"] ;
600 -> 601 ;
602 [label="squared_error = 0.0\nsamples = 1\nvalue = 232.0"] ;
600 -> 602 ;
603 [label="squared_error = 0.0\nsamples = 1\nvalue = 214.0"] ;
599 -> 603 ;
604 [label="x[24] <= 160.421\nsquared_error = 132.25\nsamples = 2\nvalue = 287.5"] ;
598 -> 604 ;
605 [label="squared_error = 0.0\nsamples = 1\nvalue = 299.0"] ;
604 -> 605 ;
606 [label="squared_error = 0.0\nsamples = 1\nvalue = 276.0"] ;
604 -> 606 ;
607 [label="x[24] <= 161.339\nsquared_error = 11380.05\nsamples = 10\nvalue = 394.5"] ;
585 -> 607 ;
608 [label="x[2] <= 0.5\nsquared_error = 5706.688\nsamples = 4\nvalue = 488.75"] ;
607 -> 608 ;
609 [label="x[24] <= 161.123\nsquared_error = 1074.889\nsamples = 3\nvalue = 448.333"] ;
608 -> 609 ;
610 [label="squared_error = 0.0\nsamples = 1\nvalue = 402.0"] ;
609 -> 610 ;
611 [label="x[24] <= 161.159\nsquared_error = 2.25\nsamples = 2\nvalue = 471.5"] ;
609 -> 611 ;
612 [label="squared_error = 0.0\nsamples = 1\nvalue = 470.0"] ;
611 -> 612 ;
613 [label="squared_error = 0.0\nsamples = 1\nvalue = 473.0"] ;
611 -> 613 ;
614 [label="squared_error = -0.0\nsamples = 1\nvalue = 610.0"] ;
608 -> 614 ;
615 [label="x[12] <= 0.5\nsquared_error = 5292.222\nsamples = 6\nvalue = 331.667"] ;
607 -> 615 ;
616 [label="x[13] <= 0.5\nsquared_error = 1889.84\nsamples = 5\nvalue = 304.4"] ;
615 -> 616 ;
617 [label="x[0] <= 0.5\nsquared_error = 1058.188\nsamples = 4\nvalue = 288.25"] ;
616 -> 617 ;
618 [label="x[24] <= 161.517\nsquared_error = 810.667\nsamples = 3\nvalue = 276.0"] ;
617 -> 618 ;
619 [label="squared_error = 0.0\nsamples = 1\nvalue = 316.0"] ;
618 -> 619 ;
620 [label="x[14] <= 0.5\nsquared_error = 16.0\nsamples = 2\nvalue = 256.0"] ;
618 -> 620 ;
621 [label="squared_error = 0.0\nsamples = 1\nvalue = 260.0"] ;
620 -> 621 ;
622 [label="squared_error = 0.0\nsamples = 1\nvalue = 252.0"] ;
620 -> 622 ;
623 [label="squared_error = 0.0\nsamples = 1\nvalue = 325.0"] ;
617 -> 623 ;
624 [label="squared_error = 0.0\nsamples = 1\nvalue = 369.0"] ;
616 -> 624 ;
625 [label="squared_error = 0.0\nsamples = 1\nvalue = 468.0"] ;
615 -> 625 ;
626 [label="x[24] <= 149.315\nsquared_error = 28457.501\nsamples = 19\nvalue = 425.842"] ;
390 -> 626 ;
627 [label="x[24] <= 148.791\nsquared_error = 30202.49\nsamples = 14\nvalue = 455.286"] ;
626 -> 627 ;
628 [label="x[24] <= 146.216\nsquared_error = 23683.207\nsamples = 13\nvalue = 430.154"] ;
627 -> 628 ;
629 [label="x[24] <= 136.984\nsquared_error = 22922.331\nsamples = 11\nvalue = 456.818"] ;
628 -> 629 ;
630 [label="x[24] <= 135.232\nsquared_error = 25124.667\nsamples = 3\nvalue = 533.0"] ;
629 -> 630 ;
631 [label="x[24] <= 134.651\nsquared_error = 3660.25\nsamples = 2\nvalue = 426.5"] ;
630 -> 631 ;
632 [label="squared_error = 0.0\nsamples = 1\nvalue = 487.0"] ;
631 -> 632 ;
633 [label="squared_error = 0.0\nsamples = 1\nvalue = 366.0"] ;
631 -> 633 ;
634 [label="squared_error = 0.0\nsamples = 1\nvalue = 746.0"] ;
630 -> 634 ;
635 [label="x[24] <= 139.927\nsquared_error = 19103.938\nsamples = 8\nvalue = 428.25"] ;
629 -> 635 ;
636 [label="x[24] <= 138.645\nsquared_error = 150.222\nsamples = 3\nvalue = 316.667"] ;
635 -> 636 ;
637 [label="squared_error = 0.0\nsamples = 1\nvalue = 332.0"] ;
636 -> 637 ;
638 [label="x[24] <= 139.223\nsquared_error = 49.0\nsamples = 2\nvalue = 309.0"] ;
636 -> 638 ;
639 [label="squared_error = 0.0\nsamples = 1\nvalue = 302.0"] ;
638 -> 639 ;
640 [label="squared_error = 0.0\nsamples = 1\nvalue = 316.0"] ;
638 -> 640 ;
641 [label="x[24] <= 141.955\nsquared_error = 18523.36\nsamples = 5\nvalue = 495.2"] ;
635 -> 641 ;
642 [label="x[24] <= 140.689\nsquared_error = 90.25\nsamples = 2\nvalue = 585.5"] ;
641 -> 642 ;
643 [label="squared_error = 0.0\nsamples = 1\nvalue = 595.0"] ;
642 -> 643 ;
644 [label="squared_error = 0.0\nsamples = 1\nvalue = 576.0"] ;
642 -> 644 ;
645 [label="x[24] <= 144.164\nsquared_error = 21752.0\nsamples = 3\nvalue = 435.0"] ;
641 -> 645 ;
646 [label="x[24] <= 143.075\nsquared_error = 16641.0\nsamples = 2\nvalue = 362.0"] ;
645 -> 646 ;
647 [label="squared_error = 0.0\nsamples = 1\nvalue = 491.0"] ;
646 -> 647 ;
648 [label="squared_error = -0.0\nsamples = 1\nvalue = 233.0"] ;
646 -> 648 ;
649 [label="squared_error = -0.0\nsamples = 1\nvalue = 581.0"] ;
645 -> 649 ;
650 [label="x[24] <= 147.864\nsquared_error = 2450.25\nsamples = 2\nvalue = 283.5"] ;
628 -> 650 ;
651 [label="squared_error = 0.0\nsamples = 1\nvalue = 333.0"] ;
650 -> 651 ;
652 [label="squared_error = 0.0\nsamples = 1\nvalue = 234.0"] ;
650 -> 652 ;
653 [label="squared_error = 0.0\nsamples = 1\nvalue = 782.0"] ;
627 -> 653 ;
654 [label="x[24] <= 157.682\nsquared_error = 14347.44\nsamples = 5\nvalue = 343.4"] ;
626 -> 654 ;
655 [label="x[24] <= 149.86\nsquared_error = 1603.688\nsamples = 4\nvalue = 286.25"] ;
654 -> 655 ;
656 [label="squared_error = 0.0\nsamples = 1\nvalue = 224.0"] ;
655 -> 656 ;
657 [label="x[24] <= 150.96\nsquared_error = 416.0\nsamples = 3\nvalue = 307.0"] ;
655 -> 657 ;
658 [label="squared_error = 0.0\nsamples = 1\nvalue = 279.0"] ;
657 -> 658 ;
659 [label="x[24] <= 154.324\nsquared_error = 36.0\nsamples = 2\nvalue = 321.0"] ;
657 -> 659 ;
660 [label="squared_error = 0.0\nsamples = 1\nvalue = 315.0"] ;
659 -> 660 ;
661 [label="squared_error = 0.0\nsamples = 1\nvalue = 327.0"] ;
659 -> 661 ;
662 [label="squared_error = 0.0\nsamples = 1\nvalue = 572.0"] ;
654 -> 662 ;
663 [label="x[24] <= 142.69\nsquared_error = 8420.059\nsamples = 13\nvalue = 310.692"] ;
363 -> 663 ;
664 [label="x[24] <= 129.894\nsquared_error = 3915.673\nsamples = 7\nvalue = 249.429"] ;
663 -> 664 ;
665 [label="squared_error = 0.0\nsamples = 1\nvalue = 359.0"] ;
664 -> 665 ;
666 [label="x[24] <= 134.427\nsquared_error = 2233.806\nsamples = 6\nvalue = 231.167"] ;
664 -> 666 ;
667 [label="squared_error = 0.0\nsamples = 1\nvalue = 164.0"] ;
666 -> 667 ;
668 [label="x[24] <= 140.324\nsquared_error = 1597.84\nsamples = 5\nvalue = 244.6"] ;
666 -> 668 ;
669 [label="x[24] <= 139.486\nsquared_error = 16.0\nsamples = 2\nvalue = 283.0"] ;
668 -> 669 ;
670 [label="squared_error = 0.0\nsamples = 1\nvalue = 287.0"] ;
669 -> 670 ;
671 [label="squared_error = 0.0\nsamples = 1\nvalue = 279.0"] ;
669 -> 671 ;
672 [label="x[24] <= 140.815\nsquared_error = 1014.0\nsamples = 3\nvalue = 219.0"] ;
668 -> 672 ;
673 [label="squared_error = 0.0\nsamples = 1\nvalue = 174.0"] ;
672 -> 673 ;
674 [label="x[24] <= 141.973\nsquared_error = 2.25\nsamples = 2\nvalue = 241.5"] ;
672 -> 674 ;
675 [label="squared_error = 0.0\nsamples = 1\nvalue = 243.0"] ;
674 -> 675 ;
676 [label="squared_error = 0.0\nsamples = 1\nvalue = 240.0"] ;
674 -> 676 ;
677 [label="x[24] <= 155.012\nsquared_error = 4187.806\nsamples = 6\nvalue = 382.167"] ;
663 -> 677 ;
678 [label="x[24] <= 145.213\nsquared_error = 1461.188\nsamples = 4\nvalue = 422.25"] ;
677 -> 678 ;
679 [label="squared_error = 0.0\nsamples = 1\nvalue = 364.0"] ;
678 -> 679 ;
680 [label="x[24] <= 151.984\nsquared_error = 440.222\nsamples = 3\nvalue = 441.667"] ;
678 -> 680 ;
681 [label="x[24] <= 149.002\nsquared_error = 484.0\nsamples = 2\nvalue = 434.0"] ;
680 -> 681 ;
682 [label="squared_error = 0.0\nsamples = 1\nvalue = 456.0"] ;
681 -> 682 ;
683 [label="squared_error = 0.0\nsamples = 1\nvalue = 412.0"] ;
681 -> 683 ;
684 [label="squared_error = 0.0\nsamples = 1\nvalue = 457.0"] ;
680 -> 684 ;
685 [label="x[24] <= 157.811\nsquared_error = 1.0\nsamples = 2\nvalue = 302.0"] ;
677 -> 685 ;
686 [label="squared_error = 0.0\nsamples = 1\nvalue = 301.0"] ;
685 -> 686 ;
687 [label="squared_error = 0.0\nsamples = 1\nvalue = 303.0"] ;
685 -> 687 ;
688 [label="x[24] <= 144.587\nsquared_error = 4757.36\nsamples = 5\nvalue = 252.2"] ;
362 -> 688 ;
689 [label="x[24] <= 134.337\nsquared_error = 1046.889\nsamples = 3\nvalue = 202.667"] ;
688 -> 689 ;
690 [label="squared_error = 0.0\nsamples = 1\nvalue = 157.0"] ;
689 -> 690 ;
691 [label="x[24] <= 139.683\nsquared_error = 6.25\nsamples = 2\nvalue = 225.5"] ;
689 -> 691 ;
692 [label="squared_error = 0.0\nsamples = 1\nvalue = 223.0"] ;
691 -> 692 ;
693 [label="squared_error = 0.0\nsamples = 1\nvalue = 228.0"] ;
691 -> 693 ;
694 [label="x[24] <= 152.171\nsquared_error = 1122.25\nsamples = 2\nvalue = 326.5"] ;
688 -> 694 ;
695 [label="squared_error = 0.0\nsamples = 1\nvalue = 293.0"] ;
694 -> 695 ;
696 [label="squared_error = 0.0\nsamples = 1\nvalue = 360.0"] ;
694 -> 696 ;
697 [label="x[24] <= 155.973\nsquared_error = 13587.981\nsamples = 31\nvalue = 421.774"] ;
293 -> 697 ;
698 [label="x[24] <= 155.069\nsquared_error = 7190.862\nsamples = 22\nvalue = 446.045"] ;
697 -> 698 ;
699 [label="x[24] <= 121.049\nsquared_error = 5881.664\nsamples = 21\nvalue = 437.381"] ;
698 -> 699 ;
700 [label="squared_error = 0.0\nsamples = 1\nvalue = 354.0"] ;
699 -> 700 ;
701 [label="x[24] <= 140.246\nsquared_error = 5810.747\nsamples = 20\nvalue = 441.55"] ;
699 -> 701 ;
702 [label="x[24] <= 135.835\nsquared_error = 4458.083\nsamples = 12\nvalue = 456.5"] ;
701 -> 702 ;
703 [label="x[24] <= 133.01\nsquared_error = 3411.136\nsamples = 9\nvalue = 438.556"] ;
702 -> 703 ;
704 [label="x[24] <= 128.892\nsquared_error = 2562.245\nsamples = 7\nvalue = 458.571"] ;
703 -> 704 ;
705 [label="x[24] <= 125.892\nsquared_error = 1370.5\nsamples = 4\nvalue = 438.0"] ;
704 -> 705 ;
706 [label="x[24] <= 123.812\nsquared_error = 1080.222\nsamples = 3\nvalue = 451.667"] ;
705 -> 706 ;
707 [label="x[24] <= 122.457\nsquared_error = 930.25\nsamples = 2\nvalue = 436.5"] ;
706 -> 707 ;
708 [label="squared_error = 0.0\nsamples = 1\nvalue = 467.0"] ;
707 -> 708 ;
709 [label="squared_error = 0.0\nsamples = 1\nvalue = 406.0"] ;
707 -> 709 ;
710 [label="squared_error = 0.0\nsamples = 1\nvalue = 482.0"] ;
706 -> 710 ;
711 [label="squared_error = -0.0\nsamples = 1\nvalue = 397.0"] ;
705 -> 711 ;
712 [label="x[24] <= 130.805\nsquared_error = 2834.667\nsamples = 3\nvalue = 486.0"] ;
704 -> 712 ;
713 [label="squared_error = 0.0\nsamples = 1\nvalue = 554.0"] ;
712 -> 713 ;
714 [label="x[24] <= 131.854\nsquared_error = 784.0\nsamples = 2\nvalue = 452.0"] ;
712 -> 714 ;
715 [label="squared_error = 0.0\nsamples = 1\nvalue = 424.0"] ;
714 -> 715 ;
716 [label="squared_error = 0.0\nsamples = 1\nvalue = 480.0"] ;
714 -> 716 ;
717 [label="x[24] <= 134.508\nsquared_error = 72.25\nsamples = 2\nvalue = 368.5"] ;
703 -> 717 ;
718 [label="squared_error = 0.0\nsamples = 1\nvalue = 377.0"] ;
717 -> 718 ;
719 [label="squared_error = 0.0\nsamples = 1\nvalue = 360.0"] ;
717 -> 719 ;
720 [label="x[24] <= 139.495\nsquared_error = 3734.889\nsamples = 3\nvalue = 510.333"] ;
702 -> 720 ;
721 [label="x[24] <= 137.831\nsquared_error = 2401.0\nsamples = 2\nvalue = 543.0"] ;
720 -> 721 ;
722 [label="squared_error = 0.0\nsamples = 1\nvalue = 494.0"] ;
721 -> 722 ;
723 [label="squared_error = -0.0\nsamples = 1\nvalue = 592.0"] ;
721 -> 723 ;
724 [label="squared_error = 0.0\nsamples = 1\nvalue = 445.0"] ;
720 -> 724 ;
725 [label="x[24] <= 144.088\nsquared_error = 7001.609\nsamples = 8\nvalue = 419.125"] ;
701 -> 725 ;
726 [label="x[24] <= 141.848\nsquared_error = 1557.556\nsamples = 3\nvalue = 347.667"] ;
725 -> 726 ;
727 [label="squared_error = 0.0\nsamples = 1\nvalue = 292.0"] ;
726 -> 727 ;
728 [label="x[24] <= 143.556\nsquared_error = 12.25\nsamples = 2\nvalue = 375.5"] ;
726 -> 728 ;
729 [label="squared_error = 0.0\nsamples = 1\nvalue = 379.0"] ;
728 -> 729 ;
730 [label="squared_error = 0.0\nsamples = 1\nvalue = 372.0"] ;
728 -> 730 ;
731 [label="x[24] <= 146.987\nsquared_error = 5366.0\nsamples = 5\nvalue = 462.0"] ;
725 -> 731 ;
732 [label="x[24] <= 145.258\nsquared_error = 1225.0\nsamples = 2\nvalue = 435.0"] ;
731 -> 732 ;
733 [label="squared_error = 0.0\nsamples = 1\nvalue = 470.0"] ;
732 -> 733 ;
734 [label="squared_error = 0.0\nsamples = 1\nvalue = 400.0"] ;
732 -> 734 ;
735 [label="x[24] <= 150.725\nsquared_error = 7316.667\nsamples = 3\nvalue = 480.0"] ;
731 -> 735 ;
736 [label="squared_error = 0.0\nsamples = 1\nvalue = 570.0"] ;
735 -> 736 ;
737 [label="x[24] <= 154.171\nsquared_error = 4900.0\nsamples = 2\nvalue = 435.0"] ;
735 -> 737 ;
738 [label="squared_error = 0.0\nsamples = 1\nvalue = 365.0"] ;
737 -> 738 ;
739 [label="squared_error = 0.0\nsamples = 1\nvalue = 505.0"] ;
737 -> 739 ;
740 [label="squared_error = 0.0\nsamples = 1\nvalue = 628.0"] ;
698 -> 740 ;
741 [label="x[24] <= 158.344\nsquared_error = 24265.358\nsamples = 9\nvalue = 362.444"] ;
697 -> 741 ;
742 [label="x[24] <= 157.323\nsquared_error = 928.667\nsamples = 3\nvalue = 258.0"] ;
741 -> 742 ;
743 [label="x[24] <= 156.551\nsquared_error = 961.0\nsamples = 2\nvalue = 246.0"] ;
742 -> 743 ;
744 [label="squared_error = 0.0\nsamples = 1\nvalue = 277.0"] ;
743 -> 744 ;
745 [label="squared_error = 0.0\nsamples = 1\nvalue = 215.0"] ;
743 -> 745 ;
746 [label="squared_error = 0.0\nsamples = 1\nvalue = 282.0"] ;
742 -> 746 ;
747 [label="x[24] <= 159.042\nsquared_error = 27752.222\nsamples = 6\nvalue = 414.667"] ;
741 -> 747 ;
748 [label="squared_error = 0.0\nsamples = 1\nvalue = 742.0"] ;
747 -> 748 ;
749 [label="x[24] <= 159.757\nsquared_error = 7587.36\nsamples = 5\nvalue = 349.2"] ;
747 -> 749 ;
750 [label="x[24] <= 159.519\nsquared_error = 11342.25\nsamples = 2\nvalue = 391.5"] ;
749 -> 750 ;
751 [label="squared_error = 0.0\nsamples = 1\nvalue = 285.0"] ;
750 -> 751 ;
752 [label="squared_error = 0.0\nsamples = 1\nvalue = 498.0"] ;
750 -> 752 ;
753 [label="x[24] <= 160.844\nsquared_error = 3096.0\nsamples = 3\nvalue = 321.0"] ;
749 -> 753 ;
754 [label="x[24] <= 160.051\nsquared_error = 81.0\nsamples = 2\nvalue = 282.0"] ;
753 -> 754 ;
755 [label="squared_error = 0.0\nsamples = 1\nvalue = 291.0"] ;
754 -> 755 ;
756 [label="squared_error = 0.0\nsamples = 1\nvalue = 273.0"] ;
754 -> 756 ;
757 [label="squared_error = 0.0\nsamples = 1\nvalue = 399.0"] ;
753 -> 757 ;
758 [label="x[24] <= 117.646\nsquared_error = 16490.191\nsamples = 34\nvalue = 318.5"] ;
132 -> 758 ;
759 [label="x[24] <= 94.219\nsquared_error = 2475.889\nsamples = 6\nvalue = 174.667"] ;
758 -> 759 ;
760 [label="squared_error = 0.0\nsamples = 1\nvalue = 122.0"] ;
759 -> 760 ;
761 [label="x[24] <= 100.277\nsquared_error = 2305.36\nsamples = 5\nvalue = 185.2"] ;
759 -> 761 ;
762 [label="squared_error = 0.0\nsamples = 1\nvalue = 265.0"] ;
761 -> 762 ;
763 [label="x[24] <= 113.135\nsquared_error = 891.688\nsamples = 4\nvalue = 165.25"] ;
761 -> 763 ;
764 [label="x[24] <= 105.93\nsquared_error = 258.667\nsamples = 3\nvalue = 150.0"] ;
763 -> 764 ;
765 [label="squared_error = 0.0\nsamples = 1\nvalue = 128.0"] ;
764 -> 765 ;
766 [label="x[24] <= 107.784\nsquared_error = 25.0\nsamples = 2\nvalue = 161.0"] ;
764 -> 766 ;
767 [label="squared_error = 0.0\nsamples = 1\nvalue = 166.0"] ;
766 -> 767 ;
768 [label="squared_error = 0.0\nsamples = 1\nvalue = 156.0"] ;
766 -> 768 ;
769 [label="squared_error = 0.0\nsamples = 1\nvalue = 211.0"] ;
763 -> 769 ;
770 [label="x[24] <= 160.724\nsquared_error = 14110.147\nsamples = 28\nvalue = 349.321"] ;
758 -> 770 ;
771 [label="x[24] <= 159.391\nsquared_error = 14221.706\nsamples = 26\nvalue = 357.577"] ;
770 -> 771 ;
772 [label="x[24] <= 157.083\nsquared_error = 9980.816\nsamples = 21\nvalue = 344.571"] ;
771 -> 772 ;
773 [label="x[24] <= 153.182\nsquared_error = 9598.447\nsamples = 20\nvalue = 351.05"] ;
772 -> 773 ;
774 [label="x[24] <= 129.827\nsquared_error = 8955.618\nsamples = 19\nvalue = 343.474"] ;
773 -> 774 ;
775 [label="x[24] <= 118.822\nsquared_error = 8058.917\nsamples = 6\nvalue = 376.5"] ;
774 -> 775 ;
776 [label="x[24] <= 118.374\nsquared_error = 7310.25\nsamples = 2\nvalue = 304.5"] ;
775 -> 776 ;
777 [label="squared_error = 0.0\nsamples = 1\nvalue = 390.0"] ;
776 -> 777 ;
778 [label="squared_error = 0.0\nsamples = 1\nvalue = 219.0"] ;
776 -> 778 ;
779 [label="x[24] <= 119.266\nsquared_error = 4545.25\nsamples = 4\nvalue = 412.5"] ;
775 -> 779 ;
780 [label="squared_error = 0.0\nsamples = 1\nvalue = 481.0"] ;
779 -> 780 ;
781 [label="x[24] <= 124.411\nsquared_error = 3974.889\nsamples = 3\nvalue = 389.667"] ;
779 -> 781 ;
782 [label="x[24] <= 119.781\nsquared_error = 110.25\nsamples = 2\nvalue = 345.5"] ;
781 -> 782 ;
783 [label="squared_error = 0.0\nsamples = 1\nvalue = 356.0"] ;
782 -> 783 ;
784 [label="squared_error = 0.0\nsamples = 1\nvalue = 335.0"] ;
782 -> 784 ;
785 [label="squared_error = 0.0\nsamples = 1\nvalue = 478.0"] ;
781 -> 785 ;
786 [label="x[24] <= 138.477\nsquared_error = 8633.716\nsamples = 13\nvalue = 328.231"] ;
774 -> 786 ;
787 [label="x[24] <= 134.163\nsquared_error = 88.667\nsamples = 3\nvalue = 231.0"] ;
786 -> 787 ;
788 [label="squared_error = 0.0\nsamples = 1\nvalue = 242.0"] ;
787 -> 788 ;
789 [label="x[24] <= 137.932\nsquared_error = 42.25\nsamples = 2\nvalue = 225.5"] ;
787 -> 789 ;
790 [label="squared_error = 0.0\nsamples = 1\nvalue = 219.0"] ;
789 -> 790 ;
791 [label="squared_error = 0.0\nsamples = 1\nvalue = 232.0"] ;
789 -> 791 ;
792 [label="x[24] <= 148.476\nsquared_error = 7510.24\nsamples = 10\nvalue = 357.4"] ;
786 -> 792 ;
793 [label="x[24] <= 143.581\nsquared_error = 7536.816\nsamples = 7\nvalue = 374.571"] ;
792 -> 793 ;
794 [label="x[24] <= 141.599\nsquared_error = 7642.64\nsamples = 5\nvalue = 347.4"] ;
793 -> 794 ;
795 [label="x[24] <= 139.69\nsquared_error = 3992.188\nsamples = 4\nvalue = 380.75"] ;
794 -> 795 ;
796 [label="x[24] <= 138.631\nsquared_error = 1205.556\nsamples = 3\nvalue = 348.667"] ;
795 -> 796 ;
797 [label="x[24] <= 138.604\nsquared_error = 400.0\nsamples = 2\nvalue = 327.0"] ;
796 -> 797 ;
798 [label="squared_error = 0.0\nsamples = 1\nvalue = 307.0"] ;
797 -> 798 ;
799 [label="squared_error = 0.0\nsamples = 1\nvalue = 347.0"] ;
797 -> 799 ;
800 [label="squared_error = 0.0\nsamples = 1\nvalue = 392.0"] ;
796 -> 800 ;
801 [label="squared_error = 0.0\nsamples = 1\nvalue = 477.0"] ;
795 -> 801 ;
802 [label="squared_error = 0.0\nsamples = 1\nvalue = 214.0"] ;
794 -> 802 ;
803 [label="x[24] <= 145.644\nsquared_error = 812.25\nsamples = 2\nvalue = 442.5"] ;
793 -> 803 ;
804 [label="squared_error = 0.0\nsamples = 1\nvalue = 414.0"] ;
803 -> 804 ;
805 [label="squared_error = 0.0\nsamples = 1\nvalue = 471.0"] ;
803 -> 805 ;
806 [label="x[24] <= 150.573\nsquared_error = 5154.889\nsamples = 3\nvalue = 317.333"] ;
792 -> 806 ;
807 [label="squared_error = 0.0\nsamples = 1\nvalue = 217.0"] ;
806 -> 807 ;
808 [label="x[24] <= 151.184\nsquared_error = 182.25\nsamples = 2\nvalue = 367.5"] ;
806 -> 808 ;
809 [label="squared_error = 0.0\nsamples = 1\nvalue = 381.0"] ;
808 -> 809 ;
810 [label="squared_error = 0.0\nsamples = 1\nvalue = 354.0"] ;
808 -> 810 ;
811 [label="squared_error = 0.0\nsamples = 1\nvalue = 495.0"] ;
773 -> 811 ;
812 [label="squared_error = 0.0\nsamples = 1\nvalue = 215.0"] ;
772 -> 812 ;
813 [label="x[24] <= 159.413\nsquared_error = 28339.36\nsamples = 5\nvalue = 412.2"] ;
771 -> 813 ;
814 [label="squared_error = 0.0\nsamples = 1\nvalue = 732.0"] ;
813 -> 814 ;
815 [label="x[24] <= 159.668\nsquared_error = 3464.188\nsamples = 4\nvalue = 332.25"] ;
813 -> 815 ;
816 [label="x[24] <= 159.484\nsquared_error = 256.0\nsamples = 2\nvalue = 288.0"] ;
815 -> 816 ;
817 [label="squared_error = 0.0\nsamples = 1\nvalue = 304.0"] ;
816 -> 817 ;
818 [label="squared_error = 0.0\nsamples = 1\nvalue = 272.0"] ;
816 -> 818 ;
819 [label="x[24] <= 160.034\nsquared_error = 2756.25\nsamples = 2\nvalue = 376.5"] ;
815 -> 819 ;
820 [label="squared_error = 0.0\nsamples = 1\nvalue = 429.0"] ;
819 -> 820 ;
821 [label="squared_error = 0.0\nsamples = 1\nvalue = 324.0"] ;
819 -> 821 ;
822 [label="x[24] <= 161.569\nsquared_error = 256.0\nsamples = 2\nvalue = 242.0"] ;
770 -> 822 ;
823 [label="squared_error = 0.0\nsamples = 1\nvalue = 258.0"] ;
822 -> 823 ;
824 [label="squared_error = 0.0\nsamples = 1\nvalue = 226.0"] ;
822 -> 824 ;
825 [label="x[24] <= 148.48\nsquared_error = 13651.515\nsamples = 14\nvalue = 281.643"] ;
131 -> 825 ;
826 [label="x[24] <= 145.497\nsquared_error = 13501.722\nsamples = 12\nvalue = 299.333"] ;
825 -> 826 ;
827 [label="x[24] <= 109.491\nsquared_error = 10735.719\nsamples = 11\nvalue = 281.091"] ;
826 -> 827 ;
828 [label="x[24] <= 99.993\nsquared_error = 5852.25\nsamples = 2\nvalue = 372.5"] ;
827 -> 828 ;
829 [label="squared_error = 0.0\nsamples = 1\nvalue = 296.0"] ;
828 -> 829 ;
830 [label="squared_error = 0.0\nsamples = 1\nvalue = 449.0"] ;
828 -> 830 ;
831 [label="x[24] <= 126.878\nsquared_error = 9551.506\nsamples = 9\nvalue = 260.778"] ;
827 -> 831 ;
832 [label="x[24] <= 111.443\nsquared_error = 2168.75\nsamples = 4\nvalue = 223.5"] ;
831 -> 832 ;
833 [label="squared_error = 0.0\nsamples = 1\nvalue = 304.0"] ;
832 -> 833 ;
834 [label="x[24] <= 117.6\nsquared_error = 11.556\nsamples = 3\nvalue = 196.667"] ;
832 -> 834 ;
835 [label="x[24] <= 111.538\nsquared_error = 9.0\nsamples = 2\nvalue = 195.0"] ;
834 -> 835 ;
836 [label="squared_error = 0.0\nsamples = 1\nvalue = 198.0"] ;
835 -> 836 ;
837 [label="squared_error = 0.0\nsamples = 1\nvalue = 192.0"] ;
835 -> 837 ;
838 [label="squared_error = 0.0\nsamples = 1\nvalue = 200.0"] ;
834 -> 838 ;
839 [label="x[24] <= 133.487\nsquared_error = 13456.64\nsamples = 5\nvalue = 290.6"] ;
831 -> 839 ;
840 [label="squared_error = 0.0\nsamples = 1\nvalue = 477.0"] ;
839 -> 840 ;
841 [label="x[24] <= 139.939\nsquared_error = 5963.0\nsamples = 4\nvalue = 244.0"] ;
839 -> 841 ;
842 [label="x[24] <= 138.225\nsquared_error = 400.0\nsamples = 2\nvalue = 189.0"] ;
841 -> 842 ;
843 [label="squared_error = 0.0\nsamples = 1\nvalue = 169.0"] ;
842 -> 843 ;
844 [label="squared_error = 0.0\nsamples = 1\nvalue = 209.0"] ;
842 -> 844 ;
845 [label="x[24] <= 141.655\nsquared_error = 5476.0\nsamples = 2\nvalue = 299.0"] ;
841 -> 845 ;
846 [label="squared_error = 0.0\nsamples = 1\nvalue = 373.0"] ;
845 -> 846 ;
847 [label="squared_error = 0.0\nsamples = 1\nvalue = 225.0"] ;
845 -> 847 ;
848 [label="squared_error = 0.0\nsamples = 1\nvalue = 500.0"] ;
826 -> 848 ;
849 [label="x[24] <= 154.035\nsquared_error = 1406.25\nsamples = 2\nvalue = 175.5"] ;
825 -> 849 ;
850 [label="squared_error = 0.0\nsamples = 1\nvalue = 213.0"] ;
849 -> 850 ;
851 [label="squared_error = 0.0\nsamples = 1\nvalue = 138.0"] ;
849 -> 851 ;
852 [label="x[15] <= 0.5\nsquared_error = 27255.397\nsamples = 119\nvalue = 402.328"] ;
130 -> 852 ;
853 [label="x[17] <= 0.5\nsquared_error = 25600.904\nsamples = 111\nvalue = 392.721"] ;
852 -> 853 ;
854 [label="x[7] <= 0.5\nsquared_error = 23704.092\nsamples = 104\nvalue = 384.567"] ;
853 -> 854 ;
855 [label="x[4] <= 0.5\nsquared_error = 19013.25\nsamples = 96\nvalue = 375.479"] ;
854 -> 855 ;
856 [label="x[24] <= 176.723\nsquared_error = 17241.87\nsamples = 93\nvalue = 369.849"] ;
855 -> 856 ;
857 [label="x[24] <= 171.386\nsquared_error = 17831.789\nsamples = 84\nvalue = 376.595"] ;
856 -> 857 ;
858 [label="x[24] <= 166.688\nsquared_error = 13345.078\nsamples = 57\nvalue = 356.789"] ;
857 -> 858 ;
859 [label="x[24] <= 166.544\nsquared_error = 19074.942\nsamples = 26\nvalue = 400.5"] ;
858 -> 859 ;
860 [label="x[23] <= 0.5\nsquared_error = 13846.698\nsamples = 25\nvalue = 385.32"] ;
859 -> 860 ;
861 [label="x[24] <= 162.57\nsquared_error = 10856.568\nsamples = 24\nvalue = 373.375"] ;
860 -> 861 ;
862 [label="x[24] <= 162.514\nsquared_error = 4024.222\nsamples = 3\nvalue = 461.333"] ;
861 -> 862 ;
863 [label="x[12] <= 0.5\nsquared_error = 6.25\nsamples = 2\nvalue = 416.5"] ;
862 -> 863 ;
864 [label="squared_error = 0.0\nsamples = 1\nvalue = 419.0"] ;
863 -> 864 ;
865 [label="squared_error = 0.0\nsamples = 1\nvalue = 414.0"] ;
863 -> 865 ;
866 [label="squared_error = 0.0\nsamples = 1\nvalue = 551.0"] ;
862 -> 866 ;
867 [label="x[14] <= 0.5\nsquared_error = 10569.488\nsamples = 21\nvalue = 360.81"] ;
861 -> 867 ;
868 [label="x[20] <= 0.5\nsquared_error = 5853.028\nsamples = 18\nvalue = 346.167"] ;
867 -> 868 ;
869 [label="x[24] <= 164.194\nsquared_error = 4505.073\nsamples = 17\nvalue = 336.471"] ;
868 -> 869 ;
870 [label="x[24] <= 163.254\nsquared_error = 5269.6\nsamples = 5\nvalue = 303.0"] ;
869 -> 870 ;
871 [label="x[8] <= 0.5\nsquared_error = 2998.222\nsamples = 3\nvalue = 350.667"] ;
870 -> 871 ;
872 [label="x[24] <= 162.898\nsquared_error = 961.0\nsamples = 2\nvalue = 385.0"] ;
871 -> 872 ;
873 [label="squared_error = 0.0\nsamples = 1\nvalue = 354.0"] ;
872 -> 873 ;
874 [label="squared_error = 0.0\nsamples = 1\nvalue = 416.0"] ;
872 -> 874 ;
875 [label="squared_error = 0.0\nsamples = 1\nvalue = 282.0"] ;
871 -> 875 ;
876 [label="x[13] <= 0.5\nsquared_error = 156.25\nsamples = 2\nvalue = 231.5"] ;
870 -> 876 ;
877 [label="squared_error = 0.0\nsamples = 1\nvalue = 244.0"] ;
876 -> 877 ;
878 [label="squared_error = 0.0\nsamples = 1\nvalue = 219.0"] ;
876 -> 878 ;
879 [label="x[9] <= 0.5\nsquared_error = 3525.243\nsamples = 12\nvalue = 350.417"] ;
869 -> 879 ;
880 [label="x[8] <= 0.5\nsquared_error = 1503.556\nsamples = 9\nvalue = 376.667"] ;
879 -> 880 ;
881 [label="x[24] <= 165.919\nsquared_error = 948.938\nsamples = 8\nvalue = 385.75"] ;
880 -> 881 ;
882 [label="x[16] <= 0.5\nsquared_error = 256.64\nsamples = 5\nvalue = 404.6"] ;
881 -> 882 ;
883 [label="x[12] <= 0.5\nsquared_error = 146.75\nsamples = 4\nvalue = 410.5"] ;
882 -> 883 ;
884 [label="x[13] <= 0.5\nsquared_error = 43.556\nsamples = 3\nvalue = 416.667"] ;
883 -> 884 ;
885 [label="squared_error = 0.0\nsamples = 2\nvalue = 412.0"] ;
884 -> 885 ;
886 [label="squared_error = 0.0\nsamples = 1\nvalue = 426.0"] ;
884 -> 886 ;
887 [label="squared_error = 0.0\nsamples = 1\nvalue = 392.0"] ;
883 -> 887 ;
888 [label="squared_error = 0.0\nsamples = 1\nvalue = 381.0"] ;
882 -> 888 ;
889 [label="x[21] <= 0.5\nsquared_error = 523.556\nsamples = 3\nvalue = 354.333"] ;
881 -> 889 ;
890 [label="x[5] <= 0.5\nsquared_error = 49.0\nsamples = 2\nvalue = 370.0"] ;
889 -> 890 ;
891 [label="squared_error = 0.0\nsamples = 1\nvalue = 363.0"] ;
890 -> 891 ;
892 [label="squared_error = 0.0\nsamples = 1\nvalue = 377.0"] ;
890 -> 892 ;
893 [label="squared_error = 0.0\nsamples = 1\nvalue = 323.0"] ;
889 -> 893 ;
894 [label="squared_error = 0.0\nsamples = 1\nvalue = 304.0"] ;
880 -> 894 ;
895 [label="x[24] <= 165.3\nsquared_error = 1321.556\nsamples = 3\nvalue = 271.667"] ;
879 -> 895 ;
896 [label="squared_error = 0.0\nsamples = 1\nvalue = 317.0"] ;
895 -> 896 ;
897 [label="x[24] <= 165.813\nsquared_error = 441.0\nsamples = 2\nvalue = 249.0"] ;
895 -> 897 ;
898 [label="squared_error = 0.0\nsamples = 1\nvalue = 270.0"] ;
897 -> 898 ;
899 [label="squared_error = 0.0\nsamples = 1\nvalue = 228.0"] ;
897 -> 899 ;
900 [label="squared_error = 0.0\nsamples = 1\nvalue = 511.0"] ;
868 -> 900 ;
901 [label="x[24] <= 164.619\nsquared_error = 29862.889\nsamples = 3\nvalue = 448.667"] ;
867 -> 901 ;
902 [label="x[24] <= 163.947\nsquared_error = 32761.0\nsamples = 2\nvalue = 512.0"] ;
901 -> 902 ;
903 [label="squared_error = 0.0\nsamples = 1\nvalue = 331.0"] ;
902 -> 903 ;
904 [label="squared_error = 0.0\nsamples = 1\nvalue = 693.0"] ;
902 -> 904 ;
905 [label="squared_error = 0.0\nsamples = 1\nvalue = 322.0"] ;
901 -> 905 ;
906 [label="squared_error = 0.0\nsamples = 1\nvalue = 672.0"] ;
860 -> 906 ;
907 [label="squared_error = 0.0\nsamples = 1\nvalue = 780.0"] ;
859 -> 907 ;
908 [label="x[3] <= 0.5\nsquared_error = 5592.951\nsamples = 31\nvalue = 320.129"] ;
858 -> 908 ;
909 [label="x[21] <= 0.5\nsquared_error = 5444.269\nsamples = 29\nvalue = 314.276"] ;
908 -> 909 ;
910 [label="x[24] <= 170.127\nsquared_error = 5213.024\nsamples = 28\nvalue = 318.107"] ;
909 -> 910 ;
911 [label="x[24] <= 169.745\nsquared_error = 4794.355\nsamples = 19\nvalue = 328.474"] ;
910 -> 911 ;
912 [label="x[1] <= 0.5\nsquared_error = 4646.498\nsamples = 17\nvalue = 319.824"] ;
911 -> 912 ;
913 [label="x[24] <= 168.484\nsquared_error = 4296.84\nsamples = 16\nvalue = 313.688"] ;
912 -> 913 ;
914 [label="x[24] <= 167.205\nsquared_error = 4621.787\nsamples = 13\nvalue = 324.462"] ;
913 -> 914 ;
915 [label="x[12] <= 0.5\nsquared_error = 1619.688\nsamples = 4\nvalue = 289.25"] ;
914 -> 915 ;
916 [label="x[24] <= 166.997\nsquared_error = 296.222\nsamples = 3\nvalue = 267.667"] ;
915 -> 916 ;
917 [label="x[24] <= 166.786\nsquared_error = 36.0\nsamples = 2\nvalue = 256.0"] ;
916 -> 917 ;
918 [label="squared_error = 0.0\nsamples = 1\nvalue = 262.0"] ;
917 -> 918 ;
919 [label="squared_error = 0.0\nsamples = 1\nvalue = 250.0"] ;
917 -> 919 ;
920 [label="squared_error = 0.0\nsamples = 1\nvalue = 291.0"] ;
916 -> 920 ;
921 [label="squared_error = 0.0\nsamples = 1\nvalue = 354.0"] ;
915 -> 921 ;
922 [label="x[24] <= 167.337\nsquared_error = 5160.099\nsamples = 9\nvalue = 340.111"] ;
914 -> 922 ;
923 [label="squared_error = 0.0\nsamples = 1\nvalue = 526.0"] ;
922 -> 923 ;
924 [label="x[24] <= 168.124\nsquared_error = 945.859\nsamples = 8\nvalue = 316.875"] ;
922 -> 924 ;
925 [label="x[20] <= 0.5\nsquared_error = 480.64\nsamples = 5\nvalue = 298.4"] ;
924 -> 925 ;
926 [label="x[9] <= 0.5\nsquared_error = 6.889\nsamples = 3\nvalue = 284.667"] ;
925 -> 926 ;
927 [label="x[6] <= 0.5\nsquared_error = 0.25\nsamples = 2\nvalue = 286.5"] ;
926 -> 927 ;
928 [label="squared_error = 0.0\nsamples = 1\nvalue = 287.0"] ;
927 -> 928 ;
929 [label="squared_error = 0.0\nsamples = 1\nvalue = 286.0"] ;
927 -> 929 ;
930 [label="squared_error = 0.0\nsamples = 1\nvalue = 281.0"] ;
926 -> 930 ;
931 [label="x[24] <= 167.613\nsquared_error = 484.0\nsamples = 2\nvalue = 319.0"] ;
925 -> 931 ;
932 [label="squared_error = 0.0\nsamples = 1\nvalue = 297.0"] ;
931 -> 932 ;
933 [label="squared_error = 0.0\nsamples = 1\nvalue = 341.0"] ;
931 -> 933 ;
934 [label="x[24] <= 168.439\nsquared_error = 204.222\nsamples = 3\nvalue = 347.667"] ;
924 -> 934 ;
935 [label="x[5] <= 0.5\nsquared_error = 72.25\nsamples = 2\nvalue = 356.5"] ;
934 -> 935 ;
936 [label="squared_error = 0.0\nsamples = 1\nvalue = 348.0"] ;
935 -> 936 ;
937 [label="squared_error = 0.0\nsamples = 1\nvalue = 365.0"] ;
935 -> 937 ;
938 [label="squared_error = 0.0\nsamples = 1\nvalue = 330.0"] ;
934 -> 938 ;
939 [label="x[6] <= 0.5\nsquared_error = 206.0\nsamples = 3\nvalue = 267.0"] ;
913 -> 939 ;
940 [label="x[24] <= 168.543\nsquared_error = 9.0\nsamples = 2\nvalue = 257.0"] ;
939 -> 940 ;
941 [label="squared_error = 0.0\nsamples = 1\nvalue = 260.0"] ;
940 -> 941 ;
942 [label="squared_error = 0.0\nsamples = 1\nvalue = 254.0"] ;
940 -> 942 ;
943 [label="squared_error = 0.0\nsamples = 1\nvalue = 287.0"] ;
939 -> 943 ;
944 [label="squared_error = 0.0\nsamples = 1\nvalue = 418.0"] ;
912 -> 944 ;
945 [label="x[5] <= 0.5\nsquared_error = 9.0\nsamples = 2\nvalue = 402.0"] ;
911 -> 945 ;
946 [label="squared_error = 0.0\nsamples = 1\nvalue = 405.0"] ;
945 -> 946 ;
947 [label="squared_error = 0.0\nsamples = 1\nvalue = 399.0"] ;
945 -> 947 ;
948 [label="x[9] <= 0.5\nsquared_error = 5391.062\nsamples = 9\nvalue = 296.222"] ;
910 -> 948 ;
949 [label="x[1] <= 0.5\nsquared_error = 3434.109\nsamples = 8\nvalue = 279.125"] ;
948 -> 949 ;
950 [label="x[6] <= 0.5\nsquared_error = 1646.571\nsamples = 7\nvalue = 296.0"] ;
949 -> 950 ;
951 [label="x[14] <= 0.5\nsquared_error = 581.472\nsamples = 6\nvalue = 282.167"] ;
950 -> 951 ;
952 [label="x[5] <= 0.5\nsquared_error = 256.222\nsamples = 3\nvalue = 267.333"] ;
951 -> 952 ;
953 [label="squared_error = 0.0\nsamples = 1\nvalue = 249.0"] ;
952 -> 953 ;
954 [label="x[24] <= 170.996\nsquared_error = 132.25\nsamples = 2\nvalue = 276.5"] ;
952 -> 954 ;
955 [label="squared_error = 0.0\nsamples = 1\nvalue = 288.0"] ;
954 -> 955 ;
956 [label="squared_error = 0.0\nsamples = 1\nvalue = 265.0"] ;
954 -> 956 ;
957 [label="x[24] <= 170.688\nsquared_error = 466.667\nsamples = 3\nvalue = 297.0"] ;
951 -> 957 ;
958 [label="squared_error = 0.0\nsamples = 1\nvalue = 327.0"] ;
957 -> 958 ;
959 [label="x[24] <= 171.248\nsquared_error = 25.0\nsamples = 2\nvalue = 282.0"] ;
957 -> 959 ;
960 [label="squared_error = 0.0\nsamples = 1\nvalue = 287.0"] ;
959 -> 960 ;
961 [label="squared_error = 0.0\nsamples = 1\nvalue = 277.0"] ;
959 -> 961 ;
962 [label="squared_error = 0.0\nsamples = 1\nvalue = 379.0"] ;
950 -> 962 ;
963 [label="squared_error = 0.0\nsamples = 1\nvalue = 161.0"] ;
949 -> 963 ;
964 [label="squared_error = 0.0\nsamples = 1\nvalue = 433.0"] ;
948 -> 964 ;
965 [label="squared_error = 0.0\nsamples = 1\nvalue = 207.0"] ;
909 -> 965 ;
966 [label="x[24] <= 169.036\nsquared_error = 49.0\nsamples = 2\nvalue = 405.0"] ;
908 -> 966 ;
967 [label="squared_error = 0.0\nsamples = 1\nvalue = 398.0"] ;
966 -> 967 ;
968 [label="squared_error = 0.0\nsamples = 1\nvalue = 412.0"] ;
966 -> 968 ;
969 [label="x[21] <= 0.5\nsquared_error = 24727.353\nsamples = 27\nvalue = 418.407"] ;
857 -> 969 ;
970 [label="x[9] <= 0.5\nsquared_error = 17466.038\nsamples = 25\nvalue = 400.04"] ;
969 -> 970 ;
971 [label="x[24] <= 172.345\nsquared_error = 14694.082\nsamples = 24\nvalue = 388.208"] ;
970 -> 971 ;
972 [label="x[6] <= 0.5\nsquared_error = 15023.347\nsamples = 7\nvalue = 481.286"] ;
971 -> 972 ;
973 [label="x[16] <= 0.5\nsquared_error = 4428.56\nsamples = 5\nvalue = 424.2"] ;
972 -> 973 ;
974 [label="x[14] <= 0.5\nsquared_error = 1970.889\nsamples = 3\nvalue = 385.333"] ;
973 -> 974 ;
975 [label="x[24] <= 171.924\nsquared_error = 196.0\nsamples = 2\nvalue = 355.0"] ;
974 -> 975 ;
976 [label="squared_error = 0.0\nsamples = 1\nvalue = 369.0"] ;
975 -> 976 ;
977 [label="squared_error = 0.0\nsamples = 1\nvalue = 341.0"] ;
975 -> 977 ;
978 [label="squared_error = 0.0\nsamples = 1\nvalue = 446.0"] ;
974 -> 978 ;
979 [label="x[24] <= 171.676\nsquared_error = 2450.25\nsamples = 2\nvalue = 482.5"] ;
973 -> 979 ;
980 [label="squared_error = 0.0\nsamples = 1\nvalue = 433.0"] ;
979 -> 980 ;
981 [label="squared_error = 0.0\nsamples = 1\nvalue = 532.0"] ;
979 -> 981 ;
982 [label="x[24] <= 172.008\nsquared_error = 12996.0\nsamples = 2\nvalue = 624.0"] ;
972 -> 982 ;
983 [label="squared_error = 0.0\nsamples = 1\nvalue = 738.0"] ;
982 -> 983 ;
984 [label="squared_error = 0.0\nsamples = 1\nvalue = 510.0"] ;
982 -> 984 ;
985 [label="x[14] <= 0.5\nsquared_error = 9522.339\nsamples = 17\nvalue = 349.882"] ;
971 -> 985 ;
986 [label="x[16] <= 0.5\nsquared_error = 7639.662\nsamples = 15\nvalue = 332.933"] ;
985 -> 986 ;
987 [label="x[24] <= 175.855\nsquared_error = 6584.367\nsamples = 13\nvalue = 316.692"] ;
986 -> 987 ;
988 [label="x[6] <= 0.5\nsquared_error = 2733.388\nsamples = 7\nvalue = 269.571"] ;
987 -> 988 ;
989 [label="x[24] <= 175.452\nsquared_error = 1343.222\nsamples = 6\nvalue = 253.333"] ;
988 -> 989 ;
990 [label="x[24] <= 174.867\nsquared_error = 1027.76\nsamples = 5\nvalue = 263.2"] ;
989 -> 990 ;
991 [label="x[24] <= 173.179\nsquared_error = 570.688\nsamples = 4\nvalue = 251.25"] ;
990 -> 991 ;
992 [label="squared_error = 0.0\nsamples = 1\nvalue = 288.0"] ;
991 -> 992 ;
993 [label="x[24] <= 174.352\nsquared_error = 160.667\nsamples = 3\nvalue = 239.0"] ;
991 -> 993 ;
994 [label="x[24] <= 174.017\nsquared_error = 49.0\nsamples = 2\nvalue = 231.0"] ;
993 -> 994 ;
995 [label="squared_error = 0.0\nsamples = 1\nvalue = 238.0"] ;
994 -> 995 ;
996 [label="squared_error = 0.0\nsamples = 1\nvalue = 224.0"] ;
994 -> 996 ;
997 [label="squared_error = 0.0\nsamples = 1\nvalue = 255.0"] ;
993 -> 997 ;
998 [label="squared_error = 0.0\nsamples = 1\nvalue = 311.0"] ;
990 -> 998 ;
999 [label="squared_error = 0.0\nsamples = 1\nvalue = 204.0"] ;
989 -> 999 ;
1000 [label="squared_error = 0.0\nsamples = 1\nvalue = 367.0"] ;
988 -> 1000 ;
1001 [label="x[24] <= 175.974\nsquared_error = 5464.556\nsamples = 6\nvalue = 371.667"] ;
987 -> 1001 ;
1002 [label="squared_error = 0.0\nsamples = 1\nvalue = 455.0"] ;
1001 -> 1002 ;
1003 [label="x[24] <= 176.173\nsquared_error = 4890.8\nsamples = 5\nvalue = 355.0"] ;
1001 -> 1003 ;
1004 [label="squared_error = 0.0\nsamples = 1\nvalue = 253.0"] ;
1003 -> 1004 ;
1005 [label="x[8] <= 0.5\nsquared_error = 2862.25\nsamples = 4\nvalue = 380.5"] ;
1003 -> 1005 ;
1006 [label="squared_error = 0.0\nsamples = 1\nvalue = 303.0"] ;
1005 -> 1006 ;
1007 [label="x[24] <= 176.476\nsquared_error = 1146.889\nsamples = 3\nvalue = 406.333"] ;
1005 -> 1007 ;
1008 [label="x[24] <= 176.296\nsquared_error = 784.0\nsamples = 2\nvalue = 424.0"] ;
1007 -> 1008 ;
1009 [label="squared_error = 0.0\nsamples = 1\nvalue = 396.0"] ;
1008 -> 1009 ;
1010 [label="squared_error = 0.0\nsamples = 1\nvalue = 452.0"] ;
1008 -> 1010 ;
1011 [label="squared_error = 0.0\nsamples = 1\nvalue = 371.0"] ;
1007 -> 1011 ;
1012 [label="x[24] <= 174.237\nsquared_error = 1640.25\nsamples = 2\nvalue = 438.5"] ;
986 -> 1012 ;
1013 [label="squared_error = 0.0\nsamples = 1\nvalue = 479.0"] ;
1012 -> 1013 ;
1014 [label="squared_error = 0.0\nsamples = 1\nvalue = 398.0"] ;
1012 -> 1014 ;
1015 [label="x[24] <= 176.196\nsquared_error = 5329.0\nsamples = 2\nvalue = 477.0"] ;
985 -> 1015 ;
1016 [label="squared_error = 0.0\nsamples = 1\nvalue = 550.0"] ;
1015 -> 1016 ;
1017 [label="squared_error = 0.0\nsamples = 1\nvalue = 404.0"] ;
1015 -> 1017 ;
1018 [label="squared_error = 0.0\nsamples = 1\nvalue = 684.0"] ;
970 -> 1018 ;
1019 [label="x[24] <= 174.213\nsquared_error = 58564.0\nsamples = 2\nvalue = 648.0"] ;
969 -> 1019 ;
1020 [label="squared_error = 0.0\nsamples = 1\nvalue = 406.0"] ;
1019 -> 1020 ;
1021 [label="squared_error = 0.0\nsamples = 1\nvalue = 890.0"] ;
1019 -> 1021 ;
1022 [label="x[13] <= 0.5\nsquared_error = 7347.21\nsamples = 9\nvalue = 306.889"] ;
856 -> 1022 ;
1023 [label="x[5] <= 0.5\nsquared_error = 3798.122\nsamples = 7\nvalue = 281.857"] ;
1022 -> 1023 ;
1024 [label="x[24] <= 177.227\nsquared_error = 827.139\nsamples = 6\nvalue = 259.167"] ;
1023 -> 1024 ;
1025 [label="x[24] <= 176.889\nsquared_error = 560.222\nsamples = 3\nvalue = 282.333"] ;
1024 -> 1025 ;
1026 [label="squared_error = 0.0\nsamples = 1\nvalue = 306.0"] ;
1025 -> 1026 ;
1027 [label="x[24] <= 177.059\nsquared_error = 420.25\nsamples = 2\nvalue = 270.5"] ;
1025 -> 1027 ;
1028 [label="squared_error = 0.0\nsamples = 1\nvalue = 250.0"] ;
1027 -> 1028 ;
1029 [label="squared_error = -0.0\nsamples = 1\nvalue = 291.0"] ;
1027 -> 1029 ;
1030 [label="x[24] <= 177.411\nsquared_error = 20.667\nsamples = 3\nvalue = 236.0"] ;
1024 -> 1030 ;
1031 [label="x[24] <= 177.295\nsquared_error = 4.0\nsamples = 2\nvalue = 239.0"] ;
1030 -> 1031 ;
1032 [label="squared_error = 0.0\nsamples = 1\nvalue = 241.0"] ;
1031 -> 1032 ;
1033 [label="squared_error = 0.0\nsamples = 1\nvalue = 237.0"] ;
1031 -> 1033 ;
1034 [label="squared_error = 0.0\nsamples = 1\nvalue = 230.0"] ;
1030 -> 1034 ;
1035 [label="squared_error = 0.0\nsamples = 1\nvalue = 418.0"] ;
1023 -> 1035 ;
1036 [label="x[24] <= 177.026\nsquared_error = 9900.25\nsamples = 2\nvalue = 394.5"] ;
1022 -> 1036 ;
1037 [label="squared_error = 0.0\nsamples = 1\nvalue = 295.0"] ;
1036 -> 1037 ;
1038 [label="squared_error = 0.0\nsamples = 1\nvalue = 494.0"] ;
1036 -> 1038 ;
1039 [label="x[24] <= 174.945\nsquared_error = 42486.0\nsamples = 3\nvalue = 550.0"] ;
855 -> 1039 ;
1040 [label="x[24] <= 170.386\nsquared_error = 7832.25\nsamples = 2\nvalue = 686.5"] ;
1039 -> 1040 ;
1041 [label="squared_error = 0.0\nsamples = 1\nvalue = 598.0"] ;
1040 -> 1041 ;
1042 [label="squared_error = 0.0\nsamples = 1\nvalue = 775.0"] ;
1040 -> 1042 ;
1043 [label="squared_error = 0.0\nsamples = 1\nvalue = 277.0"] ;
1039 -> 1043 ;
1044 [label="x[24] <= 163.794\nsquared_error = 67109.484\nsamples = 8\nvalue = 493.625"] ;
854 -> 1044 ;
1045 [label="x[24] <= 163.166\nsquared_error = 3422.25\nsamples = 2\nvalue = 285.5"] ;
1044 -> 1045 ;
1046 [label="squared_error = 0.0\nsamples = 1\nvalue = 344.0"] ;
1045 -> 1046 ;
1047 [label="squared_error = 0.0\nsamples = 1\nvalue = 227.0"] ;
1045 -> 1047 ;
1048 [label="x[24] <= 164.755\nsquared_error = 69087.0\nsamples = 6\nvalue = 563.0"] ;
1044 -> 1048 ;
1049 [label="squared_error = 0.0\nsamples = 1\nvalue = 985.0"] ;
1048 -> 1049 ;
1050 [label="x[24] <= 167.436\nsquared_error = 40164.24\nsamples = 5\nvalue = 478.6"] ;
1048 -> 1050 ;
1051 [label="squared_error = 0.0\nsamples = 1\nvalue = 277.0"] ;
1050 -> 1051 ;
1052 [label="x[24] <= 169.709\nsquared_error = 37504.5\nsamples = 4\nvalue = 529.0"] ;
1050 -> 1052 ;
1053 [label="squared_error = 0.0\nsamples = 1\nvalue = 855.0"] ;
1052 -> 1053 ;
1054 [label="x[24] <= 171.356\nsquared_error = 2772.222\nsamples = 3\nvalue = 420.333"] ;
1052 -> 1054 ;
1055 [label="squared_error = 0.0\nsamples = 1\nvalue = 492.0"] ;
1054 -> 1055 ;
1056 [label="x[24] <= 174.648\nsquared_error = 306.25\nsamples = 2\nvalue = 384.5"] ;
1054 -> 1056 ;
1057 [label="squared_error = 0.0\nsamples = 1\nvalue = 367.0"] ;
1056 -> 1057 ;
1058 [label="squared_error = 0.0\nsamples = 1\nvalue = 402.0"] ;
1056 -> 1058 ;
1059 [label="x[24] <= 163.809\nsquared_error = 38120.408\nsamples = 7\nvalue = 513.857"] ;
853 -> 1059 ;
1060 [label="squared_error = 0.0\nsamples = 1\nvalue = 926.0"] ;
1059 -> 1060 ;
1061 [label="x[24] <= 170.979\nsquared_error = 11445.139\nsamples = 6\nvalue = 445.167"] ;
1059 -> 1061 ;
1062 [label="x[24] <= 166.741\nsquared_error = 8572.25\nsamples = 4\nvalue = 470.5"] ;
1061 -> 1062 ;
1063 [label="x[24] <= 165.266\nsquared_error = 3860.667\nsamples = 3\nvalue = 427.0"] ;
1062 -> 1063 ;
1064 [label="squared_error = 0.0\nsamples = 1\nvalue = 508.0"] ;
1063 -> 1064 ;
1065 [label="x[24] <= 165.99\nsquared_error = 870.25\nsamples = 2\nvalue = 386.5"] ;
1063 -> 1065 ;
1066 [label="squared_error = 0.0\nsamples = 1\nvalue = 416.0"] ;
1065 -> 1066 ;
1067 [label="squared_error = 0.0\nsamples = 1\nvalue = 357.0"] ;
1065 -> 1067 ;
1068 [label="squared_error = 0.0\nsamples = 1\nvalue = 601.0"] ;
1062 -> 1068 ;
1069 [label="x[24] <= 174.808\nsquared_error = 13340.25\nsamples = 2\nvalue = 394.5"] ;
1061 -> 1069 ;
1070 [label="squared_error = 0.0\nsamples = 1\nvalue = 279.0"] ;
1069 -> 1070 ;
1071 [label="squared_error = 0.0\nsamples = 1\nvalue = 510.0"] ;
1069 -> 1071 ;
1072 [label="x[24] <= 175.688\nsquared_error = 31162.734\nsamples = 8\nvalue = 535.625"] ;
852 -> 1072 ;
1073 [label="x[24] <= 168.641\nsquared_error = 24439.429\nsamples = 7\nvalue = 573.0"] ;
1072 -> 1073 ;
1074 [label="x[24] <= 165.126\nsquared_error = 3661.556\nsamples = 3\nvalue = 650.333"] ;
1073 -> 1074 ;
1075 [label="squared_error = 0.0\nsamples = 1\nvalue = 574.0"] ;
1074 -> 1075 ;
1076 [label="x[24] <= 166.839\nsquared_error = 1122.25\nsamples = 2\nvalue = 688.5"] ;
1074 -> 1076 ;
1077 [label="squared_error = 0.0\nsamples = 1\nvalue = 722.0"] ;
1076 -> 1077 ;
1078 [label="squared_error = 0.0\nsamples = 1\nvalue = 655.0"] ;
1076 -> 1078 ;
1079 [label="x[24] <= 170.597\nsquared_error = 32173.5\nsamples = 4\nvalue = 515.0"] ;
1073 -> 1079 ;
1080 [label="squared_error = 0.0\nsamples = 1\nvalue = 310.0"] ;
1079 -> 1080 ;
1081 [label="x[24] <= 172.983\nsquared_error = 24220.222\nsamples = 3\nvalue = 583.333"] ;
1079 -> 1081 ;
1082 [label="squared_error = 0.0\nsamples = 1\nvalue = 761.0"] ;
1081 -> 1082 ;
1083 [label="x[24] <= 175.14\nsquared_error = 12656.25\nsamples = 2\nvalue = 494.5"] ;
1081 -> 1083 ;
1084 [label="squared_error = 0.0\nsamples = 1\nvalue = 382.0"] ;
1083 -> 1084 ;
1085 [label="squared_error = 0.0\nsamples = 1\nvalue = 607.0"] ;
1083 -> 1085 ;
1086 [label="squared_error = 0.0\nsamples = 1\nvalue = 274.0"] ;
1072 -> 1086 ;
1087 [label="x[24] <= 86.267\nsquared_error = 9582.098\nsamples = 29\nvalue = 323.621"] ;
7 -> 1087 ;
1088 [label="x[24] <= 68.091\nsquared_error = 8356.222\nsamples = 3\nvalue = 233.667"] ;
1087 -> 1088 ;
1089 [label="x[24] <= 60.099\nsquared_error = 4160.25\nsamples = 2\nvalue = 286.5"] ;
1088 -> 1089 ;
1090 [label="squared_error = 0.0\nsamples = 1\nvalue = 222.0"] ;
1089 -> 1090 ;
1091 [label="squared_error = 0.0\nsamples = 1\nvalue = 351.0"] ;
1089 -> 1091 ;
1092 [label="squared_error = 0.0\nsamples = 1\nvalue = 128.0"] ;
1088 -> 1092 ;
1093 [label="x[24] <= 164.922\nsquared_error = 8682.154\nsamples = 26\nvalue = 334.0"] ;
1087 -> 1093 ;
1094 [label="x[24] <= 162.693\nsquared_error = 10478.325\nsamples = 17\nvalue = 350.294"] ;
1093 -> 1094 ;
1095 [label="x[24] <= 156.122\nsquared_error = 6959.359\nsamples = 16\nvalue = 334.625"] ;
1094 -> 1095 ;
1096 [label="x[24] <= 154.574\nsquared_error = 7145.066\nsamples = 14\nvalue = 343.929"] ;
1095 -> 1096 ;
1097 [label="x[24] <= 125.849\nsquared_error = 4561.076\nsamples = 12\nvalue = 321.083"] ;
1096 -> 1097 ;
1098 [label="x[24] <= 124.603\nsquared_error = 6127.139\nsamples = 6\nvalue = 354.167"] ;
1097 -> 1098 ;
1099 [label="x[24] <= 110.724\nsquared_error = 1819.76\nsamples = 5\nvalue = 323.8"] ;
1098 -> 1099 ;
1100 [label="x[24] <= 100.718\nsquared_error = 724.667\nsamples = 3\nvalue = 354.0"] ;
1099 -> 1100 ;
1101 [label="squared_error = 0.0\nsamples = 1\nvalue = 375.0"] ;
1100 -> 1101 ;
1102 [label="x[24] <= 105.774\nsquared_error = 756.25\nsamples = 2\nvalue = 343.5"] ;
1100 -> 1102 ;
1103 [label="squared_error = 0.0\nsamples = 1\nvalue = 316.0"] ;
1102 -> 1103 ;
1104 [label="squared_error = 0.0\nsamples = 1\nvalue = 371.0"] ;
1102 -> 1104 ;
1105 [label="x[24] <= 117.671\nsquared_error = 42.25\nsamples = 2\nvalue = 278.5"] ;
1099 -> 1105 ;
1106 [label="squared_error = 0.0\nsamples = 1\nvalue = 285.0"] ;
1105 -> 1106 ;
1107 [label="squared_error = 0.0\nsamples = 1\nvalue = 272.0"] ;
1105 -> 1107 ;
1108 [label="squared_error = 0.0\nsamples = 1\nvalue = 506.0"] ;
1098 -> 1108 ;
1109 [label="x[24] <= 149.334\nsquared_error = 806.0\nsamples = 6\nvalue = 288.0"] ;
1097 -> 1109 ;
1110 [label="x[24] <= 141.014\nsquared_error = 437.04\nsamples = 5\nvalue = 278.6"] ;
1109 -> 1110 ;
1111 [label="x[24] <= 135.346\nsquared_error = 458.0\nsamples = 3\nvalue = 289.0"] ;
1110 -> 1111 ;
1112 [label="x[24] <= 129.34\nsquared_error = 324.0\nsamples = 2\nvalue = 278.0"] ;
1111 -> 1112 ;
1113 [label="squared_error = 0.0\nsamples = 1\nvalue = 296.0"] ;
1112 -> 1113 ;
1114 [label="squared_error = 0.0\nsamples = 1\nvalue = 260.0"] ;
1112 -> 1114 ;
1115 [label="squared_error = 0.0\nsamples = 1\nvalue = 311.0"] ;
1111 -> 1115 ;
1116 [label="squared_error = 0.0\nsamples = 2\nvalue = 263.0"] ;
1110 -> 1116 ;
1117 [label="squared_error = 0.0\nsamples = 1\nvalue = 335.0"] ;
1109 -> 1117 ;
1118 [label="x[24] <= 154.846\nsquared_error = 729.0\nsamples = 2\nvalue = 481.0"] ;
1096 -> 1118 ;
1119 [label="squared_error = 0.0\nsamples = 1\nvalue = 454.0"] ;
1118 -> 1119 ;
1120 [label="squared_error = 0.0\nsamples = 1\nvalue = 508.0"] ;
1118 -> 1120 ;
1121 [label="x[24] <= 159.334\nsquared_error = 812.25\nsamples = 2\nvalue = 269.5"] ;
1095 -> 1121 ;
1122 [label="squared_error = 0.0\nsamples = 1\nvalue = 298.0"] ;
1121 -> 1122 ;
1123 [label="squared_error = 0.0\nsamples = 1\nvalue = 241.0"] ;
1121 -> 1123 ;
1124 [label="squared_error = 0.0\nsamples = 1\nvalue = 601.0"] ;
1094 -> 1124 ;
1125 [label="x[24] <= 167.301\nsquared_error = 3840.617\nsamples = 9\nvalue = 303.222"] ;
1093 -> 1125 ;
1126 [label="x[24] <= 166.256\nsquared_error = 1406.25\nsamples = 2\nvalue = 219.5"] ;
1125 -> 1126 ;
1127 [label="squared_error = 0.0\nsamples = 1\nvalue = 257.0"] ;
1126 -> 1127 ;
1128 [label="squared_error = 0.0\nsamples = 1\nvalue = 182.0"] ;
1126 -> 1128 ;
1129 [label="x[24] <= 173.089\nsquared_error = 1961.265\nsamples = 7\nvalue = 327.143"] ;
1125 -> 1129 ;
1130 [label="x[24] <= 170.425\nsquared_error = 330.667\nsamples = 3\nvalue = 295.0"] ;
1129 -> 1130 ;
1131 [label="squared_error = 0.0\nsamples = 1\nvalue = 319.0"] ;
1130 -> 1131 ;
1132 [label="x[24] <= 172.865\nsquared_error = 64.0\nsamples = 2\nvalue = 283.0"] ;
1130 -> 1132 ;
1133 [label="squared_error = 0.0\nsamples = 1\nvalue = 291.0"] ;
1132 -> 1133 ;
1134 [label="squared_error = 0.0\nsamples = 1\nvalue = 275.0"] ;
1132 -> 1134 ;
